{"learner":{"attributes":{"scikit_learn":"{\"_estimator_type\": \"regressor\"}"},"feature_names":["Irradiation","Air_Temp","PV_Temp","hour","month","hour_sin","month_sin","sun_elev_deg","low_sun_flag"],"feature_types":["float","float","float","int","int","float","float","float","int"],"gradient_booster":{"model":{"cats":{"enc":[],"feature_segments":[],"sorted_idx":[]},"gbtree_model_param":{"num_parallel_tree":"1","num_trees":"500"},"iteration_indptr":[0,1,2,3,4,5,6,7,8,9,10,11,12,13,14,15,16,17,18,19,20,21,22,23,24,25,26,27,28,29,30,31,32,33,34,35,36,37,38,39,40,41,42,43,44,45,46,47,48,49,50,51,52,53,54,55,56,57,58,59,60,61,62,63,64,65,66,67,68,69,70,71,72,73,74,75,76,77,78,79,80,81,82,83,84,85,86,87,88,89,90,91,92,93,94,95,96,97,98,99,100,101,102,103,104,105,106,107,108,109,110,111,112,113,114,115,116,117,118,119,120,121,122,123,124,125,126,127,128,129,130,131,132,133,134,135,136,137,138,139,140,141,142,143,144,145,146,147,148,149,150,151,152,153,154,155,156,157,158,159,160,161,162,163,164,165,166,167,168,169,170,171,172,173,174,175,176,177,178,179,180,181,182,183,184,185,186,187,188,189,190,191,192,193,194,195,196,197,198,199,200,201,202,203,204,205,206,207,208,209,210,211,212,213,214,215,216,217,218,219,220,221,222,223,224,225,226,227,228,229,230,231,232,233,234,235,236,237,238,239,240,241,242,243,244,245,246,247,248,249,250,251,252,253,254,255,256,257,258,259,260,261,262,263,264,265,266,267,268,269,270,271,272,273,274,275,276,277,278,279,280,281,282,283,284,285,286,287,288,289,290,291,292,293,294,295,296,297,298,299,300,301,302,303,304,305,306,307,308,309,310,311,312,313,314,315,316,317,318,319,320,321,322,323,324,325,326,327,328,329,330,331,332,333,334,335,336,337,338,339,340,341,342,343,344,345,346,347,348,349,350,351,352,353,354,355,356,357,358,359,360,361,362,363,364,365,366,367,368,369,370,371,372,373,374,375,376,377,378,379,380,381,382,383,384,385,386,387,388,389,390,391,392,393,394,395,396,397,398,399,400,401,402,403,404,405,406,407,408,409,410,411,412,413,414,415,416,417,418,419,420,421,422,423,424,425,426,427,428,429,430,431,432,433,434,435,436,437,438,439,440,441,442,443,444,445,446,447,448,449,450,451,452,453,454,455,456,457,458,459,460,461,462,463,464,465,466,467,468,469,470,471,472,473,474,475,476,477,478,479,480,481,482,483,484,485,486,487,488,489,490,491,492,493,494,495,496,497,498,499,500],"tree_info":[0,0,0,0,0,0,0,0,0,0,0,0,0,0,0,0,0,0,0,0,0,0,0,0,0,0,0,0,0,0,0,0,0,0,0,0,0,0,0,0,0,0,0,0,0,0,0,0,0,0,0,0,0,0,0,0,0,0,0,0,0,0,0,0,0,0,0,0,0,0,0,0,0,0,0,0,0,0,0,0,0,0,0,0,0,0,0,0,0,0,0,0,0,0,0,0,0,0,0,0,0,0,0,0,0,0,0,0,0,0,0,0,0,0,0,0,0,0,0,0,0,0,0,0,0,0,0,0,0,0,0,0,0,0,0,0,0,0,0,0,0,0,0,0,0,0,0,0,0,0,0,0,0,0,0,0,0,0,0,0,0,0,0,0,0,0,0,0,0,0,0,0,0,0,0,0,0,0,0,0,0,0,0,0,0,0,0,0,0,0,0,0,0,0,0,0,0,0,0,0,0,0,0,0,0,0,0,0,0,0,0,0,0,0,0,0,0,0,0,0,0,0,0,0,0,0,0,0,0,0,0,0,0,0,0,0,0,0,0,0,0,0,0,0,0,0,0,0,0,0,0,0,0,0,0,0,0,0,0,0,0,0,0,0,0,0,0,0,0,0,0,0,0,0,0,0,0,0,0,0,0,0,0,0,0,0,0,0,0,0,0,0,0,0,0,0,0,0,0,0,0,0,0,0,0,0,0,0,0,0,0,0,0,0,0,0,0,0,0,0,0,0,0,0,0,0,0,0,0,0,0,0,0,0,0,0,0,0,0,0,0,0,0,0,0,0,0,0,0,0,0,0,0,0,0,0,0,0,0,0,0,0,0,0,0,0,0,0,0,0,0,0,0,0,0,0,0,0,0,0,0,0,0,0,0,0,0,0,0,0,0,0,0,0,0,0,0,0,0,0,0,0,0,0,0,0,0,0,0,0,0,0,0,0,0,0,0,0,0,0,0,0,0,0,0,0,0,0,0,0,0,0,0,0,0,0,0,0,0,0,0,0,0,0,0,0,0,0,0,0,0,0,0,0,0,0,0,0,0,0,0,0,0,0,0,0,0,0,0,0,0,0,0,0,0,0,0,0,0,0,0,0,0,0,0,0,0,0,0,0,0,0,0,0,0,0,0,0,0,0],"trees":[{"base_weights":[1.1542883E-3,-2.482605E-1,2.7309057E-1,-3.251498E-1,-1.2103921E-1,1.4002825E-1,4.4517472E-1,-3.54259E-1,-2.7300853E-1,-1.672217E-1,1.2733368E-2,6.7209445E-2,2.4601032E-1,3.8617906E-1,5.15185E-1,-1.8261498E-2,-1.6428025E-2,-1.6715307E-2,-2.5372112E-1,-5.746738E-2,-1.9823217E-1,-9.1352515E-2,1.0525056E-1,2.953592E-2,3.1190062E-1,2.0140612E-1,4.0295708E-1,4.5651114E-1,3.362345E-1,5.519099E-1,4.9040204E-1,-1.4005055E-2,-1.1972386E-2,-7.4375193E-3,3.0637934E-4,-1.1163446E-2,-7.789021E-3,-1.2955755E-3,-6.883309E-3,2.869121E-3,7.2475853E-3,5.8509945E-3,-5.5944145E-4,-3.474875E-3,1.613854E-2,7.0866435E-3,1.4320105E-2,1.7672826E-2,2.4702389E-2,2.097886E-2,2.722002E-2,1.4121889E-2,1.886302E-2,2.5783775E-2,2.854989E-2,2.2135397E-2,2.5752995E-2],"categories":[],"categories_nodes":[],"categories_segments":[],"categories_sizes":[],"default_left":[0,0,0,0,0,0,0,0,0,0,0,0,0,0,0,0,0,0,0,0,0,0,0,0,0,0,0,0,0,0,0,0,0,0,0,0,0,0,0,0,0,0,0,0,0,0,0,0,0,0,0,0,0,0,0,0,0],"id":0,"left_children":[1,3,5,7,9,11,13,15,17,19,21,23,25,27,29,-1,-1,-1,31,33,35,37,39,41,43,45,47,49,51,53,55,-1,-1,-1,-1,-1,-1,-1,-1,-1,-1,-1,-1,-1,-1,-1,-1,-1,-1,-1,-1,-1,-1,-1,-1,-1,-1],"loss_changes":[8.227164E2,6.1851074E1,1.3281424E2,5.887909E0,1.4736546E1,2.5250519E1,1.0250732E1,5.9243774E-1,1.5904617E0,6.0230675E0,5.9126415E0,1.7892883E1,9.250488E0,4.683487E0,7.796631E-1,0E0,0E0,0E0,3.4033203E-1,2.2765262E0,1.434082E0,8.723378E-1,6.0931873E-1,6.001002E0,1.0962105E0,5.234276E0,1.1510353E0,1.6186066E0,1.6789627E0,2.1636963E-2,5.9284973E-1,0E0,0E0,0E0,0E0,0E0,0E0,0E0,0E0,0E0,0E0,0E0,0E0,0E0,0E0,0E0,0E0,0E0,0E0,0E0,0E0,0E0,0E0,0E0,0E0,0E0,0E0],"parents":[2147483647,0,0,1,1,2,2,3,3,4,4,5,5,6,6,7,7,8,8,9,9,10,10,11,11,12,12,13,13,14,14,18,18,19,19,20,20,21,21,22,22,23,23,24,24,25,25,26,26,27,27,28,28,29,29,30,30],"right_children":[2,4,6,8,10,12,14,16,18,20,22,24,26,28,30,-1,-1,-1,32,34,36,38,40,42,44,46,48,50,52,54,56,-1,-1,-1,-1,-1,-1,-1,-1,-1,-1,-1,-1,-1,-1,-1,-1,-1,-1,-1,-1,-1,-1,-1,-1,-1,-1],"split_conditions":[2.86575E2,1.41575E2,5.7665E2,7.305E1,1E1,4.436E2,7.41325E2,3.8625E1,1.2246469E-16,-3.575E0,1.985E2,1E1,9E0,2.1325E1,6E0,-1.8261498E-2,-1.6428025E-2,-1.6715307E-2,9.585E1,2.04975E2,2.3125E2,8.660254E-1,2.29125E2,4E0,-8.9E0,8.660254E-1,1E1,1E0,6.5285E2,7.985E2,8.055E2,-1.4005055E-2,-1.1972386E-2,-7.4375193E-3,3.0637934E-4,-1.1163446E-2,-7.789021E-3,-1.2955755E-3,-6.883309E-3,2.869121E-3,7.2475853E-3,5.8509945E-3,-5.5944145E-4,-3.474875E-3,1.613854E-2,7.0866435E-3,1.4320105E-2,1.7672826E-2,2.4702389E-2,2.097886E-2,2.722002E-2,1.4121889E-2,1.886302E-2,2.5783775E-2,2.854989E-2,2.2135397E-2,2.5752995E-2],"split_indices":[0,0,0,0,4,0,0,0,5,1,0,4,4,1,4,0,0,0,0,0,0,5,0,4,1,6,4,6,0,0,0,0,0,0,0,0,0,0,0,0,0,0,0,0,0,0,0,0,0,0,0,0,0,0,0,0,0],"split_type":[0,0,0,0,0,0,0,0,0,0,0,0,0,0,0,0,0,0,0,0,0,0,0,0,0,0,0,0,0,0,0,0,0,0,0,0,0,0,0,0,0,0,0,0,0,0,0,0,0,0,0,0,0,0,0,0,0],"sum_hessian":[1.2128E4,6.326E3,5.802E3,3.942E3,2.384E3,3.273E3,2.529E3,2.526E3,1.416E3,1.772E3,6.12E2,1.941E3,1.332E3,1.376E3,1.153E3,1.761E3,7.65E2,3.35E2,1.081E3,3.91E2,1.381E3,2.88E2,3.24E2,1.683E3,2.58E2,1.039E3,2.93E2,5.68E2,8.08E2,4.56E2,6.97E2,3.73E2,7.08E2,1.6E2,2.31E2,8.66E2,5.15E2,1.2E2,1.68E2,1.48E2,1.76E2,5.34E2,1.149E3,7E0,2.51E2,6.12E2,4.27E2,1.93E2,1E2,4.04E2,1.64E2,3.53E2,4.55E2,1.67E2,2.89E2,2.44E2,4.53E2],"tree_param":{"num_deleted":"0","num_feature":"9","num_nodes":"57","size_leaf_vector":"1"}},{"base_weights":[7.210938E-4,-2.0838198E-1,2.953041E-1,-2.949788E-1,-6.2252916E-2,1.7475106E-1,4.3445975E-1,-3.3550918E-1,-2.372729E-1,-1.04952775E-1,9.221479E-2,1.3239531E-1,3.3226374E-1,3.8850886E-1,5.0036955E-1,-1.7331615E-2,-3.0994034E-1,-3.100227E-1,-2.202254E-1,-1.4903647E-1,-1.9990431E-2,2.3842476E-2,1.9972529E-1,4.069524E-2,2.0615505E-1,2.4530801E-1,3.865625E-1,4.7016934E-1,3.5404465E-1,2.6669228E-2,4.7909322E-1,-1.5962983E-2,-1.4335483E-2,-1.5902897E-2,-1.3678382E-2,-1.5338318E-2,-1.0571762E-2,-2.2142564E-3,-9.038973E-3,8.623611E-3,-2.2697772E-3,-3.1652797E-3,3.5758228E-3,-5.458809E-3,1.0512072E-2,6.437022E-3,-1.2304796E-3,7.2139963E-3,1.4776522E-2,7.0690103E-3,1.6432637E-2,1.7260822E-2,2.2927726E-2,1.1301818E-2,2.4378164E-2,1.6588543E-2,2.5238542E-2,2.2610135E-2,2.502351E-2],"categories":[],"categories_nodes":[],"categories_segments":[],"categories_sizes":[],"default_left":[0,0,0,0,0,0,0,0,0,0,0,0,0,0,0,0,0,0,0,0,0,0,0,0,0,0,0,0,0,0,0,0,0,0,0,0,0,0,0,0,0,0,0,0,0,0,0,0,0,0,0,0,0,0,0,0,0,0,0],"id":1,"left_children":[1,3,5,7,9,11,13,15,17,19,21,23,25,27,29,-1,31,33,35,37,39,41,43,45,47,49,51,53,55,-1,57,-1,-1,-1,-1,-1,-1,-1,-1,-1,-1,-1,-1,-1,-1,-1,-1,-1,-1,-1,-1,-1,-1,-1,-1,-1,-1,-1,-1],"loss_changes":[7.4915735E2,8.999176E1,8.462424E1,1.0365662E1,1.7475222E1,1.8015945E1,6.901642E0,6.380005E-1,2.221138E0,7.768839E0,4.214564E0,1.4432266E1,2.6106453E0,3.73143E0,4.1809082E-1,0E0,8.252716E-2,1.492691E-2,1.0754395E0,4.534107E0,3.4793994E0,1.4669799E0,7.4735737E-1,5.482705E0,6.499485E0,1.8851242E0,8.8648224E-1,1.6223373E0,3.1159134E0,0E0,1.1456299E-1,0E0,0E0,0E0,0E0,0E0,0E0,0E0,0E0,0E0,0E0,0E0,0E0,0E0,0E0,0E0,0E0,0E0,0E0,0E0,0E0,0E0,0E0,0E0,0E0,0E0,0E0,0E0,0E0],"parents":[2147483647,0,0,1,1,2,2,3,3,4,4,5,5,6,6,7,7,8,8,9,9,10,10,11,11,12,12,13,13,14,14,16,16,17,17,18,18,19,19,20,20,21,21,22,22,23,23,24,24,25,25,26,26,27,27,28,28,30,30],"right_children":[2,4,6,8,10,12,14,16,18,20,22,24,26,28,30,-1,32,34,36,38,40,42,44,46,48,50,52,54,56,-1,58,-1,-1,-1,-1,-1,-1,-1,-1,-1,-1,-1,-1,-1,-1,-1,-1,-1,-1,-1,-1,-1,-1,-1,-1,-1,-1,-1,-1],"split_conditions":[3.4485E2,1.70725E2,5.95575E2,7.655E1,1E1,9E0,7.70375E2,4.08E1,1.2246469E-16,2.80225E2,2.5185E2,4.47675E2,4.22775E2,5E0,6E0,-1.7331615E-2,1E1,5.593557E1,2E0,0E0,2E0,1.985E2,-9.184E0,5E0,8.660254E-1,1E1,1E1,-1.5E0,9E0,2.6669228E-2,8.42275E2,-1.5962983E-2,-1.4335483E-2,-1.5902897E-2,-1.3678382E-2,-1.5338318E-2,-1.0571762E-2,-2.2142564E-3,-9.038973E-3,8.623611E-3,-2.2697772E-3,-3.1652797E-3,3.5758228E-3,-5.458809E-3,1.0512072E-2,6.437022E-3,-1.2304796E-3,7.2139963E-3,1.4776522E-2,7.0690103E-3,1.6432637E-2,1.7260822E-2,2.2927726E-2,1.1301818E-2,2.4378164E-2,1.6588543E-2,2.5238542E-2,2.2610135E-2,2.502351E-2],"split_indices":[0,0,0,0,4,4,0,0,5,0,0,0,0,4,4,0,4,7,3,2,4,0,2,4,6,4,4,2,4,0,0,0,0,0,0,0,0,0,0,0,0,0,0,0,0,0,0,0,0,0,0,0,0,0,0,0,0,0,0],"split_type":[0,0,0,0,0,0,0,0,0,0,0,0,0,0,0,0,0,0,0,0,0,0,0,0,0,0,0,0,0,0,0,0,0,0,0,0,0,0,0,0,0,0,0,0,0,0,0,0,0,0,0,0,0,0,0,0,0,0,0],"sum_hessian":[1.216E4,7.112E3,5.048E3,4.465E3,2.647E3,2.706E3,2.342E3,2.62E3,1.845E3,2.074E3,5.73E2,2.134E3,5.72E2,1.384E3,9.58E2,1.817E3,8.03E2,3.47E2,1.498E3,1.365E3,7.09E2,3.51E2,2.22E2,9.52E2,1.182E3,2.22E2,3.5E2,4.07E2,9.77E2,3.66E2,5.92E2,5.64E2,2.39E2,2.78E2,6.9E1,1.35E2,1.363E3,3.18E2,1.047E3,8.2E1,6.27E2,1.24E2,2.27E2,7E0,2.15E2,4.05E2,5.47E2,7E2,4.82E2,1E2,1.22E2,2.26E2,1.24E2,2.8E1,3.79E2,8.54E2,1.23E2,2.72E2,3.2E2],"tree_param":{"num_deleted":"0","num_feature":"9","num_nodes":"59","size_leaf_vector":"1"}},{"base_weights":[4.598491E-4,-2.1371429E-1,2.5879955E-1,-2.9286534E-1,-9.505622E-2,1.3487418E-1,3.9675987E-1,-3.2021618E-1,-2.4595967E-1,-1.3755934E-1,3.126281E-2,9.0601996E-2,2.880528E-1,3.3661646E-1,4.5909044E-1,-1.649214E-2,-2.9737675E-1,-1.5088292E-2,-2.2917321E-1,-3.7896536E-2,-1.6535082E-1,-8.412137E-2,1.1081949E-1,2.529077E-2,1.8189949E-1,2.1207581E-1,3.606346E-1,4.0531796E-1,2.8636903E-1,3.9200294E-1,4.760381E-1,-1.5742425E-2,-1.4491868E-2,-1.46955E-2,-1.1082857E-2,-6.4996146E-3,7.551949E-4,-1.4045379E-2,-7.354983E-3,-8.881557E-4,-6.3593597E-3,3.962285E-3,9.675841E-3,5.281675E-3,-2.0773765E-3,6.3082553E-3,1.3053529E-2,5.7169665E-3,1.4775495E-2,1.5522954E-2,2.1559117E-2,1.2662795E-2,2.1678692E-2,1.2625391E-2,1.8079927E-2,1.5025278E-2,2.0500695E-2,2.4439171E-2,1.9968318E-2],"categories":[],"categories_nodes":[],"categories_segments":[],"categories_sizes":[],"default_left":[0,0,0,0,0,0,0,0,0,0,0,0,0,0,0,0,0,0,0,0,0,0,0,0,0,0,0,0,0,0,0,0,0,0,0,0,0,0,0,0,0,0,0,0,0,0,0,0,0,0,0,0,0,0,0,0,0,0,0],"id":2,"left_children":[1,3,5,7,9,11,13,15,17,19,21,23,25,27,29,-1,31,-1,33,35,37,39,41,43,45,47,49,51,53,55,57,-1,-1,-1,-1,-1,-1,-1,-1,-1,-1,-1,-1,-1,-1,-1,-1,-1,-1,-1,-1,-1,-1,-1,-1,-1,-1,-1,-1],"loss_changes":[6.718683E2,6.2325043E1,9.404718E1,5.0298157E0,1.4274981E1,1.9647179E1,9.607239E0,4.5419312E-1,1.3088531E0,5.502819E0,6.1596427E0,1.3423515E1,3.5079765E0,4.4717407E0,1.2641602E0,0E0,8.201599E-3,0E0,4.8711014E-1,2.1252484E0,3.238243E0,7.8077054E-1,1.0212588E0,7.0605316E0,4.110445E0,2.5756693E0,1.037796E0,2.292015E0,1.8727188E0,3.1020355E-1,7.956848E-1,0E0,0E0,0E0,0E0,0E0,0E0,0E0,0E0,0E0,0E0,0E0,0E0,0E0,0E0,0E0,0E0,0E0,0E0,0E0,0E0,0E0,0E0,0E0,0E0,0E0,0E0,0E0,0E0],"parents":[2147483647,0,0,1,1,2,2,3,3,4,4,5,5,6,6,7,7,8,8,9,9,10,10,11,11,12,12,13,13,14,14,16,16,18,18,19,19,20,20,21,21,22,22,23,23,24,24,25,25,26,26,27,27,28,28,29,29,30,30],"right_children":[2,4,6,8,10,12,14,16,18,20,22,24,26,28,30,-1,32,-1,34,36,38,40,42,44,46,48,50,52,54,56,58,-1,-1,-1,-1,-1,-1,-1,-1,-1,-1,-1,-1,-1,-1,-1,-1,-1,-1,-1,-1,-1,-1,-1,-1,-1,-1,-1,-1],"split_conditions":[3.057E2,1.44025E2,5.6675E2,7.305E1,1E1,9E0,7.201E2,3.8625E1,1.2246469E-16,-4.2E0,1.985E2,4.47675E2,4.1845E2,2.1325E1,6E0,-1.649214E-2,1.2246469E-16,-1.5088292E-2,2E0,2.04975E2,2E0,8.660254E-1,2.7025E2,5E0,8.660254E-1,1E1,1E1,5E0,8E0,5E0,4.1435825E1,-1.5742425E-2,-1.4491868E-2,-1.46955E-2,-1.1082857E-2,-6.4996146E-3,7.551949E-4,-1.4045379E-2,-7.354983E-3,-8.881557E-4,-6.3593597E-3,3.962285E-3,9.675841E-3,5.281675E-3,-2.0773765E-3,6.3082553E-3,1.3053529E-2,5.7169665E-3,1.4775495E-2,1.5522954E-2,2.1559117E-2,1.2662795E-2,2.1678692E-2,1.2625391E-2,1.8079927E-2,1.5025278E-2,2.0500695E-2,2.4439171E-2,1.9968318E-2],"split_indices":[0,0,0,0,4,4,0,0,5,1,0,0,0,1,3,0,5,0,3,0,3,5,0,4,6,4,4,3,4,3,7,0,0,0,0,0,0,0,0,0,0,0,0,0,0,0,0,0,0,0,0,0,0,0,0,0,0,0,0],"split_type":[0,0,0,0,0,0,0,0,0,0,0,0,0,0,0,0,0,0,0,0,0,0,0,0,0,0,0,0,0,0,0,0,0,0,0,0,0,0,0,0,0,0,0,0,0,0,0,0,0,0,0,0,0,0,0,0,0,0,0],"sum_hessian":[1.2141E4,6.638E3,5.503E3,3.981E3,2.657E3,2.9E3,2.603E3,2.511E3,1.47E3,1.988E3,6.69E2,2.251E3,6.49E2,1.328E3,1.275E3,1.757E3,7.54E2,3.36E2,1.134E3,4.34E2,1.554E3,2.73E2,3.96E2,1.313E3,9.38E2,3.19E2,3.3E2,5.58E2,7.7E2,2.62E2,1.013E3,2.15E2,5.39E2,1.14E2,1.02E3,1.58E2,2.76E2,2.1E2,1.344E3,1.08E2,1.65E2,2.88E2,1.08E2,5.96E2,7.17E2,5.52E2,3.86E2,1.48E2,1.71E2,1.96E2,1.34E2,8.9E1,4.69E2,5.34E2,2.36E2,4.6E1,2.16E2,8.64E2,1.49E2],"tree_param":{"num_deleted":"0","num_feature":"9","num_nodes":"59","size_leaf_vector":"1"}},{"base_weights":[-2.109692E-4,-1.7099236E-1,1.4586277E-1,-2.0131157E-1,8.293817E-2,-4.7428355E-2,2.718002E-1,-3.0127484E-1,-1.5306737E-1,1.7011508E-1,-1.2946856E-1,-2.0365925E-1,2.5553856E-2,1.0578495E-1,3.270469E-1,-3.0937263E-1,-1.2282853E-2,-2.2458605E-1,-5.8915503E-2,2.3027822E-1,8.761551E-2,-7.4042484E-2,-1.1812375E-2,-2.7102587E-1,-1.451491E-1,1.0051628E-1,-5.3920455E-2,2.6411403E-2,1.7746085E-1,2.5355962E-1,3.6669677E-1,-1.5783465E-2,-1.4666169E-2,-1.4284332E-2,-8.637756E-3,1.3074109E-3,-9.2299655E-3,-4.499133E-3,1.1664842E-2,6.2051727E-3,3.4848743E-3,-2.8012965E-3,-4.213724E-3,-8.731773E-3,-1.4108429E-2,-8.601057E-3,-3.1854738E-3,1.804976E-3,1.5794557E-2,-8.7549435E-3,1.2586237E-3,-1.4016497E-3,2.6516572E-3,3.3376743E-3,1.0219013E-2,1.4724758E-2,2.0926045E-3,2.2432704E-2,1.7402388E-2],"categories":[],"categories_nodes":[],"categories_segments":[],"categories_sizes":[],"default_left":[0,0,0,0,0,0,0,0,0,0,0,0,0,0,0,0,0,0,0,0,0,0,0,0,0,0,0,0,0,0,0,0,0,0,0,0,0,0,0,0,0,0,0,0,0,0,0,0,0,0,0,0,0,0,0,0,0,0,0],"id":3,"left_children":[1,3,5,7,9,11,13,15,17,19,21,23,25,27,29,31,-1,33,35,37,39,41,-1,43,45,47,49,51,53,55,57,-1,-1,-1,-1,-1,-1,-1,-1,-1,-1,-1,-1,-1,-1,-1,-1,-1,-1,-1,-1,-1,-1,-1,-1,-1,-1,-1,-1],"loss_changes":[3.0200446E2,4.2984665E1,1.5884827E2,2.3999603E1,1.1058134E1,2.9365551E1,3.6203156E1,6.54541E-1,2.2645401E1,2.0793562E0,1.0122981E0,3.1927986E0,1.0466943E1,5.616211E0,8.5434265E0,5.0094604E-2,0E0,6.0057526E0,1.5549735E1,2.568798E-1,1.0903275E-1,1.6662478E-2,0E0,3.5886192E-1,9.541464E-1,1.2530466E1,8.179862E0,6.8270683E-1,1.5330715E0,9.018021E0,2.7829895E0,0E0,0E0,0E0,0E0,0E0,0E0,0E0,0E0,0E0,0E0,0E0,0E0,0E0,0E0,0E0,0E0,0E0,0E0,0E0,0E0,0E0,0E0,0E0,0E0,0E0,0E0,0E0,0E0],"parents":[2147483647,0,0,1,1,2,2,3,3,4,4,5,5,6,6,7,7,8,8,9,9,10,10,11,11,12,12,13,13,14,14,15,15,17,17,18,18,19,19,20,20,21,21,23,23,24,24,25,25,26,26,27,27,28,28,29,29,30,30],"right_children":[2,4,6,8,10,12,14,16,18,20,22,24,26,28,30,32,-1,34,36,38,40,42,-1,44,46,48,50,52,54,56,58,-1,-1,-1,-1,-1,-1,-1,-1,-1,-1,-1,-1,-1,-1,-1,-1,-1,-1,-1,-1,-1,-1,-1,-1,-1,-1,-1,-1],"split_conditions":[7.0710677E-1,3.5801E1,1.135E1,1.2246469E-16,1.2E1,-2.617994E1,5E0,5.593557E1,2.7012634E1,1.1E1,1.3E1,-3.6345867E1,-3.325E0,4E0,2.92305E1,4.799356E1,-1.2282853E-2,5E-1,1.2E1,3E0,3.0125E1,3.1775E1,-1.1812375E-2,-5E-1,2.927E0,-8.07E-1,3.6E0,2.2141E1,2.05595E1,1.8275E1,2.145E1,-1.5783465E-2,-1.4666169E-2,-1.4284332E-2,-8.637756E-3,1.3074109E-3,-9.2299655E-3,-4.499133E-3,1.1664842E-2,6.2051727E-3,3.4848743E-3,-2.8012965E-3,-4.213724E-3,-8.731773E-3,-1.4108429E-2,-8.601057E-3,-3.1854738E-3,1.804976E-3,1.5794557E-2,-8.7549435E-3,1.2586237E-3,-1.4016497E-3,2.6516572E-3,3.3376743E-3,1.0219013E-2,1.4724758E-2,2.0926045E-3,2.2432704E-2,1.7402388E-2],"split_indices":[5,2,2,5,3,7,3,7,7,3,3,7,1,3,2,7,0,5,3,3,1,1,0,6,2,2,2,2,2,1,1,0,0,0,0,0,0,0,0,0,0,0,0,0,0,0,0,0,0,0,0,0,0,0,0,0,0,0,0],"split_type":[0,0,0,0,0,0,0,0,0,0,0,0,0,0,0,0,0,0,0,0,0,0,0,0,0,0,0,0,0,0,0,0,0,0,0,0,0,0,0,0,0,0,0,0,0,0,0,0,0,0,0,0,0,0,0,0,0,0,0],"sum_hessian":[1.2104E4,5.58E3,6.524E3,4.985E3,5.95E2,2.574E3,3.95E3,1.621E3,3.364E3,4.22E2,1.73E2,8.19E2,1.755E3,9.87E2,2.963E3,1.411E3,2.1E2,1.911E3,1.453E3,2.43E2,1.79E2,1.15E2,5.8E1,3.79E2,4.4E2,9.03E2,8.52E2,4.69E2,5.18E2,1.041E3,1.922E3,1E3,4.11E2,8.75E2,1.036E3,8.67E2,5.86E2,2E0,2.41E2,5.7E1,1.22E2,4.4E1,7.1E1,4.1E1,3.38E2,3.3E2,1.1E2,6.96E2,2.07E2,3.36E2,5.16E2,1.54E2,3.15E2,1.02E2,4.16E2,8.72E2,1.69E2,3.52E2,1.57E3],"tree_param":{"num_deleted":"0","num_feature":"9","num_nodes":"59","size_leaf_vector":"1"}},{"base_weights":[5.216567E-4,-2.0492847E-1,2.2540425E-1,-2.6630652E-1,-1.0174507E-1,8.436739E-2,3.372681E-1,-2.8999612E-1,-2.2331148E-1,-1.7639141E-1,-6.269143E-2,1.4583993E-1,2.4022523E-2,2.677992E-1,4.019363E-1,-1.5020825E-2,-2.722921E-1,-1.3546777E-2,-2.087831E-1,-1.2561761E-2,-1.4796135E-1,-1.2745543E-1,-1.888685E-2,2.465493E-1,1.01067014E-1,-2.0053945E-2,1.2086552E-1,3.311803E-1,2.0703103E-1,1.3409406E-2,4.117054E-1,-1.4055045E-2,-1.31485015E-2,-1.1195149E-2,-8.861744E-3,-5.2170167E-3,-1.1387263E-2,-7.446033E-3,-3.5318066E-3,-4.542687E-3,5.873792E-4,5.9393807E-3,1.4465717E-2,2.1024125E-3,7.621471E-3,-5.3901137E-3,1.0796691E-4,1.1576242E-2,4.784237E-3,9.906399E-3,1.806325E-2,1.934918E-2,9.577431E-3,2.1244338E-2,1.644793E-2],"categories":[],"categories_nodes":[],"categories_segments":[],"categories_sizes":[],"default_left":[0,0,0,0,0,0,0,0,0,0,0,0,0,0,0,0,0,0,0,0,0,0,0,0,0,0,0,0,0,0,0,0,0,0,0,0,0,0,0,0,0,0,0,0,0,0,0,0,0,0,0,0,0,0,0],"id":4,"left_children":[1,3,5,7,9,11,13,15,17,19,21,23,25,27,29,-1,31,-1,33,-1,35,37,39,41,43,45,47,49,51,-1,53,-1,-1,-1,-1,-1,-1,-1,-1,-1,-1,-1,-1,-1,-1,-1,-1,-1,-1,-1,-1,-1,-1,-1,-1],"loss_changes":[5.5761383E2,3.991638E1,9.0878204E1,3.9625244E0,6.851349E0,9.4558525E0,1.4326538E1,3.8786316E-1,9.1832733E-1,1.6821003E0,4.3863697E0,5.6700134E0,5.5002484E0,5.9090424E0,2.0611877E0,0E0,4.425049E-3,0E0,4.773903E-1,0E0,2.0226269E0,7.5053596E-1,2.0381777E0,2.0855598E0,2.6490488E0,1.7272046E0,1.1008005E0,2.9625778E0,2.1408195E0,0E0,1.5475464E0,0E0,0E0,0E0,0E0,0E0,0E0,0E0,0E0,0E0,0E0,0E0,0E0,0E0,0E0,0E0,0E0,0E0,0E0,0E0,0E0,0E0,0E0,0E0,0E0],"parents":[2147483647,0,0,1,1,2,2,3,3,4,4,5,5,6,6,7,7,8,8,9,9,10,10,11,11,12,12,13,13,14,14,16,16,18,18,20,20,21,21,22,22,23,23,24,24,25,25,26,26,27,27,28,28,30,30],"right_children":[2,4,6,8,10,12,14,16,18,20,22,24,26,28,30,-1,32,-1,34,-1,36,38,40,42,44,46,48,50,52,-1,54,-1,-1,-1,-1,-1,-1,-1,-1,-1,-1,-1,-1,-1,-1,-1,-1,-1,-1,-1,-1,-1,-1,-1,-1],"split_conditions":[2.86575E2,1.44025E2,5.05775E2,7.4725E1,5E-1,1.6475E1,6.733E2,3.37E1,1.2246469E-16,2.6666397E1,1.985E2,-2.4492937E-16,4.33975E2,2.145E1,5E0,-1.5020825E-2,5.3625E1,-1.3546777E-2,1E1,-1.2561761E-2,1.3E1,9E0,5E0,-8.660254E-1,3.6765E2,3E0,-8.660254E-1,5E0,-8.660254E-1,1.3409406E-2,4.3209343E1,-1.4055045E-2,-1.31485015E-2,-1.1195149E-2,-8.861744E-3,-5.2170167E-3,-1.1387263E-2,-7.446033E-3,-3.5318066E-3,-4.542687E-3,5.873792E-4,5.9393807E-3,1.4465717E-2,2.1024125E-3,7.621471E-3,-5.3901137E-3,1.0796691E-4,1.1576242E-2,4.784237E-3,9.906399E-3,1.806325E-2,1.934918E-2,9.577431E-3,2.1244338E-2,1.644793E-2],"split_indices":[0,0,0,0,5,1,0,0,5,7,0,6,0,1,3,0,0,0,3,0,3,3,3,6,0,3,6,3,6,0,7,0,0,0,0,0,0,0,0,0,0,0,0,0,0,0,0,0,0,0,0,0,0,0,0],"split_type":[0,0,0,0,0,0,0,0,0,0,0,0,0,0,0,0,0,0,0,0,0,0,0,0,0,0,0,0,0,0,0,0,0,0,0,0,0,0,0,0,0,0,0,0,0,0,0,0,0,0,0,0,0,0,0],"sum_hessian":[1.2067E4,6.306E3,5.761E3,3.953E3,2.353E3,2.549E3,3.212E3,2.545E3,1.408E3,8.07E2,1.546E3,1.262E3,1.287E3,1.551E3,1.661E3,1.592E3,9.53E2,3.25E2,1.083E3,2.2E2,5.87E2,6.23E2,9.23E2,3.87E2,8.75E2,8.85E2,4.02E2,7.57E2,7.94E2,1.15E2,1.546E3,4.75E2,4.78E2,7.28E2,3.55E2,3.81E2,2.06E2,4.51E2,1.72E2,2.75E2,6.48E2,9.8E1,2.89E2,4.08E2,4.67E2,1.78E2,7.07E2,7.3E1,3.29E2,1.41E2,6.16E2,6.1E1,7.33E2,1.33E3,2.16E2],"tree_param":{"num_deleted":"0","num_feature":"9","num_nodes":"55","size_leaf_vector":"1"}},{"base_weights":[-1.0026724E-4,-1.8507054E-1,2.2398092E-1,-2.517664E-1,-7.960142E-2,1.2618463E-1,3.5699183E-1,-2.7657473E-1,-2.1139285E-1,-1.1779575E-1,3.498653E-2,8.9740045E-2,2.594689E-1,3.186798E-1,4.1268712E-1,-1.4321965E-2,-2.610729E-1,-1.28947E-2,-1.979655E-1,-2.5778793E-2,-1.4376497E-1,-6.618501E-2,9.762541E-2,1.4263509E-2,1.6096984E-1,1.9130805E-1,3.1865305E-1,3.8393736E-1,2.8118747E-1,4.3541074E-1,3.8120165E-1,-1.34058315E-2,-1.2554593E-2,-1.0580704E-2,-8.498698E-3,1.9450685E-3,-4.718877E-3,-1.1960426E-2,-6.464234E-3,-4.7320842E-5,-5.2326494E-3,3.744725E-3,8.541253E-3,4.0847827E-3,-2.0570683E-3,6.4836293E-3,1.5663607E-2,5.086786E-3,1.3084494E-2,1.3866029E-2,1.9280134E-2,1.3164381E-2,1.9984193E-2,1.2678876E-2,1.7054537E-2,1.8546497E-2,2.2483105E-2,1.7253576E-2,1.967521E-2],"categories":[],"categories_nodes":[],"categories_segments":[],"categories_sizes":[],"default_left":[0,0,0,0,0,0,0,0,0,0,0,0,0,0,0,0,0,0,0,0,0,0,0,0,0,0,0,0,0,0,0,0,0,0,0,0,0,0,0,0,0,0,0,0,0,0,0,0,0,0,0,0,0,0,0,0,0,0,0],"id":5,"left_children":[1,3,5,7,9,11,13,15,17,19,21,23,25,27,29,-1,31,-1,33,35,37,39,41,43,45,47,49,51,53,55,57,-1,-1,-1,-1,-1,-1,-1,-1,-1,-1,-1,-1,-1,-1,-1,-1,-1,-1,-1,-1,-1,-1,-1,-1,-1,-1,-1,-1],"loss_changes":[5.0459235E2,4.6892044E1,7.156384E1,4.033081E0,1.1317657E1,1.539439E1,4.8444824E0,3.116455E-1,9.223633E-1,4.6297455E0,4.1066766E0,1.3405893E1,2.6862183E0,3.2830963E0,5.115814E-1,0E0,2.5634766E-3,0E0,4.2782974E-1,1.902698E0,2.0587368E0,6.2228084E-1,6.5276456E-1,4.531477E0,6.0749817E0,1.984438E0,8.975525E-1,8.503647E-1,1.3755798E0,3.3219147E-1,4.4231415E-2,0E0,0E0,0E0,0E0,0E0,0E0,0E0,0E0,0E0,0E0,0E0,0E0,0E0,0E0,0E0,0E0,0E0,0E0,0E0,0E0,0E0,0E0,0E0,0E0,0E0,0E0,0E0,0E0],"parents":[2147483647,0,0,1,1,2,2,3,3,4,4,5,5,6,6,7,7,8,8,9,9,10,10,11,11,12,12,13,13,14,14,16,16,18,18,19,19,20,20,21,21,22,22,23,23,24,24,25,25,26,26,27,27,28,28,29,29,30,30],"right_children":[2,4,6,8,10,12,14,16,18,20,22,24,26,28,30,-1,32,-1,34,36,38,40,42,44,46,48,50,52,54,56,58,-1,-1,-1,-1,-1,-1,-1,-1,-1,-1,-1,-1,-1,-1,-1,-1,-1,-1,-1,-1,-1,-1,-1,-1,-1,-1,-1,-1],"split_conditions":[3.057E2,1.48725E2,5.95575E2,7.305E1,1E1,9E0,7.70375E2,3.086E1,1.2246469E-16,-4.2E0,1.985E2,4.33975E2,4.1845E2,2.0675E1,2.7875E1,-1.4321965E-2,5.3625E1,-1.28947E-2,1E1,2E0,2E0,8.660254E-1,2.7645E2,5E0,1E0,1E1,1E1,5E0,8E0,6E0,8.113E2,-1.34058315E-2,-1.2554593E-2,-1.0580704E-2,-8.498698E-3,1.9450685E-3,-4.718877E-3,-1.1960426E-2,-6.464234E-3,-4.7320842E-5,-5.2326494E-3,3.744725E-3,8.541253E-3,4.0847827E-3,-2.0570683E-3,6.4836293E-3,1.5663607E-2,5.086786E-3,1.3084494E-2,1.3866029E-2,1.9280134E-2,1.3164381E-2,1.9984193E-2,1.2678876E-2,1.7054537E-2,1.8546497E-2,2.2483105E-2,1.7253576E-2,1.967521E-2],"split_indices":[0,0,0,0,4,4,0,0,5,1,0,0,0,1,1,0,0,0,3,4,3,5,0,4,6,4,4,3,4,3,0,0,0,0,0,0,0,0,0,0,0,0,0,0,0,0,0,0,0,0,0,0,0,0,0,0,0,0,0],"split_type":[0,0,0,0,0,0,0,0,0,0,0,0,0,0,0,0,0,0,0,0,0,0,0,0,0,0,0,0,0,0,0,0,0,0,0,0,0,0,0,0,0,0,0,0,0,0,0,0,0,0,0,0,0,0,0,0,0,0,0],"sum_hessian":[1.2172E4,6.668E3,5.504E3,4.084E3,2.584E3,3.173E3,2.331E3,2.526E3,1.558E3,1.938E3,6.46E2,2.493E3,6.8E2,1.385E3,9.46E2,1.533E3,9.93E2,3.45E2,1.213E3,4.27E2,1.511E3,2.47E2,3.99E2,1.211E3,1.282E3,3.18E2,3.62E2,5.02E2,8.83E2,5.42E2,4.04E2,5.67E2,4.26E2,8.11E2,4.02E2,2.2E2,2.07E2,1.97E2,1.314E3,9.2E1,1.55E2,3.06E2,9.3E1,5.46E2,6.65E2,1.065E3,2.17E2,1.41E2,1.77E2,2.27E2,1.35E2,6E1,4.42E2,6.08E2,2.75E2,1.03E2,4.39E2,1.1E2,2.94E2],"tree_param":{"num_deleted":"0","num_feature":"9","num_nodes":"59","size_leaf_vector":"1"}},{"base_weights":[3.999722E-4,-1.6204444E-1,2.3091067E-1,-2.3006436E-1,-4.890599E-2,1.3289392E-1,3.3597213E-1,-2.5560573E-1,-1.7623283E-1,-8.2304254E-2,7.09986E-2,9.8955974E-2,2.5642586E-1,2.87117E-1,3.791787E-1,-2.6739115E-1,-2.2948654E-1,-1.9712153E-1,-1.274714E-1,2.0327205E-2,-1.1229334E-1,3.0006135E-2,1.8676671E-1,3.893807E-2,1.6546397E-1,1.9152798E-1,3.0202332E-1,2.6879266E-1,4.2356184E-1,3.225271E-1,3.9338648E-1,-1.3710657E-2,-1.2902531E-2,-1.2134412E-2,-1.0055939E-2,-7.1846913E-3,-1.0465727E-2,-7.842343E-3,-4.213234E-3,4.1757706E-3,-2.4551004E-3,-7.188879E-3,-2.705373E-3,-2.265454E-3,3.0986E-3,-5.1932745E-3,1.0075677E-2,5.316578E-3,-7.475793E-4,5.6103743E-3,1.2218661E-2,6.0611796E-3,1.2836054E-2,1.3243193E-2,1.8394986E-2,1.2508243E-2,1.9730665E-2,9.573184E-3,2.155662E-2,1.2478895E-2,1.6708294E-2,2.0259663E-2,1.6225735E-2],"categories":[],"categories_nodes":[],"categories_segments":[],"categories_sizes":[],"default_left":[0,0,0,0,0,0,0,0,0,0,0,0,0,0,0,0,0,0,0,0,0,0,0,0,0,0,0,0,0,0,0,0,0,0,0,0,0,0,0,0,0,0,0,0,0,0,0,0,0,0,0,0,0,0,0,0,0,0,0,0,0,0,0],"id":6,"left_children":[1,3,5,7,9,11,13,15,17,19,21,23,25,27,29,31,33,35,37,39,41,43,45,47,49,51,53,55,57,59,61,-1,-1,-1,-1,-1,-1,-1,-1,-1,-1,-1,-1,-1,-1,-1,-1,-1,-1,-1,-1,-1,-1,-1,-1,-1,-1,-1,-1,-1,-1,-1,-1],"loss_changes":[4.5353592E2,5.466649E1,5.1516327E1,6.0555115E0,1.0694134E1,1.0841377E1,4.990967E0,8.642731E-1,1.4324417E0,6.4287815E0,2.7563462E0,8.116608E0,1.5933762E0,2.731453E0,9.0257263E-1,6.088257E-2,3.0397415E-1,6.213608E-1,5.3508615E-1,2.0792024E0,2.952633E0,1.0404475E0,6.723876E-1,3.8912606E0,4.0279236E0,1.0368023E0,7.005806E-1,2.2591019E0,1.5114975E-1,1.3904762E-1,6.963043E-1,0E0,0E0,0E0,0E0,0E0,0E0,0E0,0E0,0E0,0E0,0E0,0E0,0E0,0E0,0E0,0E0,0E0,0E0,0E0,0E0,0E0,0E0,0E0,0E0,0E0,0E0,0E0,0E0,0E0,0E0,0E0,0E0],"parents":[2147483647,0,0,1,1,2,2,3,3,4,4,5,5,6,6,7,7,8,8,9,9,10,10,11,11,12,12,13,13,14,14,15,15,16,16,17,17,18,18,19,19,20,20,21,21,22,22,23,23,24,24,25,25,26,26,27,27,28,28,29,29,30,30],"right_children":[2,4,6,8,10,12,14,16,18,20,22,24,26,28,30,32,34,36,38,40,42,44,46,48,50,52,54,56,58,60,62,-1,-1,-1,-1,-1,-1,-1,-1,-1,-1,-1,-1,-1,-1,-1,-1,-1,-1,-1,-1,-1,-1,-1,-1,-1,-1,-1,-1,-1,-1,-1,-1],"split_conditions":[3.4485E2,1.70725E2,5.86125E2,9.585E1,1E1,9E0,7.201E2,5.3625E1,1E1,-4.2E0,2.7645E2,4.64E2,4.30375E2,1E0,6E0,2.1525E1,1E1,-3.3E0,1.41575E2,2E0,2.7645E2,1.985E2,-8.9E0,5E0,8.660254E-1,1E1,1E1,9E0,3.1605E0,5E0,4.1435825E1,-1.3710657E-2,-1.2902531E-2,-1.2134412E-2,-1.0055939E-2,-7.1846913E-3,-1.0465727E-2,-7.842343E-3,-4.213234E-3,4.1757706E-3,-2.4551004E-3,-7.188879E-3,-2.705373E-3,-2.265454E-3,3.0986E-3,-5.1932745E-3,1.0075677E-2,5.316578E-3,-7.475793E-4,5.6103743E-3,1.2218661E-2,6.0611796E-3,1.2836054E-2,1.3243193E-2,1.8394986E-2,1.2508243E-2,1.9730665E-2,9.573184E-3,2.155662E-2,1.2478895E-2,1.6708294E-2,2.0259663E-2,1.6225735E-2],"split_indices":[0,0,0,0,4,4,0,0,4,1,0,0,0,6,3,0,4,2,0,4,0,0,1,4,6,4,4,4,2,3,7,0,0,0,0,0,0,0,0,0,0,0,0,0,0,0,0,0,0,0,0,0,0,0,0,0,0,0,0,0,0,0,0],"split_type":[0,0,0,0,0,0,0,0,0,0,0,0,0,0,0,0,0,0,0,0,0,0,0,0,0,0,0,0,0,0,0,0,0,0,0,0,0,0,0,0,0,0,0,0,0,0,0,0,0,0,0,0,0,0,0,0,0,0,0,0,0,0,0],"sum_hessian":[1.211E4,7.104E3,5.006E3,4.436E3,2.668E3,2.591E3,2.415E3,3.006E3,1.43E3,2.087E3,5.81E2,2.034E3,5.57E2,1.137E3,1.278E3,2.065E3,9.41E2,9.99E2,4.31E2,4.72E2,1.615E3,4.3E2,1.51E2,1.07E3,9.64E2,2.32E2,3.25E2,1.005E3,1.32E2,2.61E2,1.017E3,1.177E3,8.88E2,6.37E2,3.04E2,1.88E2,8.11E2,2.55E2,1.76E2,2.47E2,2.25E2,1.047E3,5.68E2,1.28E2,3.02E2,7E0,1.44E2,4.75E2,5.95E2,5.77E2,3.87E2,1.13E2,1.19E2,2.11E2,1.14E2,8.78E2,1.27E2,5E0,1.27E2,3.9E1,2.22E2,8.64E2,1.53E2],"tree_param":{"num_deleted":"0","num_feature":"9","num_nodes":"63","size_leaf_vector":"1"}},{"base_weights":[-1.8491434E-4,-1.7626819E-1,1.9225071E-1,-2.298287E-1,-8.847147E-2,7.047824E-2,2.8920215E-1,-2.5165913E-1,-1.9758908E-1,-1.2157353E-1,7.4426644E-3,4.422837E-2,2.4884333E-1,2.1811695E-1,3.3831507E-1,-1.2958363E-2,-1.1943266E-2,-2.359136E-1,-1.8524182E-1,-4.9406644E-2,-1.4424855E-1,-6.863988E-2,7.62452E-2,-9.863843E-2,6.098078E-2,1.9230141E-1,3.1459633E-1,7.337553E-2,2.4011728E-1,2.2055587E-1,3.4947765E-1,-1.2014359E-2,-1.0199152E-2,-9.860425E-3,-8.06472E-3,-5.7164966E-3,-2.3288469E-4,-1.103296E-2,-6.4814235E-3,-5.4012355E-4,-5.2605118E-3,1.5163677E-3,5.184588E-3,-5.8522327E-3,-4.3552825E-3,3.8797029E-3,-3.3027634E-3,-4.6270317E-3,1.0218087E-2,8.567222E-3,1.607061E-2,4.8681386E-3,3.0833797E-3,1.4170422E-2,8.516389E-3,1.2219861E-2,9.53015E-3,1.8166414E-2,1.3839359E-2],"categories":[],"categories_nodes":[],"categories_segments":[],"categories_sizes":[],"default_left":[0,0,0,0,0,0,0,0,0,0,0,0,0,0,0,0,0,0,0,0,0,0,0,0,0,0,0,0,0,0,0,0,0,0,0,0,0,0,0,0,0,0,0,0,0,0,0,0,0,0,0,0,0,0,0,0,0,0,0],"id":7,"left_children":[1,3,5,7,9,11,13,15,17,19,21,23,25,27,29,-1,-1,31,33,35,37,39,41,43,45,47,49,51,53,55,57,-1,-1,-1,-1,-1,-1,-1,-1,-1,-1,-1,-1,-1,-1,-1,-1,-1,-1,-1,-1,-1,-1,-1,-1,-1,-1,-1,-1],"loss_changes":[4.115974E2,2.980722E1,6.8501724E1,2.7225494E0,7.636671E0,1.2040619E1,1.1206299E1,1.6334534E-1,7.1105576E-1,2.9187279E0,3.240261E0,5.379114E0,1.1663761E0,4.195282E0,2.4322815E0,0E0,0E0,4.749298E-3,3.152275E-1,1.2458196E0,1.490694E0,6.2071276E-1,4.064486E-1,3.990197E-2,4.247202E0,6.372628E-1,9.236145E-2,4.342395E-2,3.4201508E0,7.338905E-2,1.653305E0,0E0,0E0,0E0,0E0,0E0,0E0,0E0,0E0,0E0,0E0,0E0,0E0,0E0,0E0,0E0,0E0,0E0,0E0,0E0,0E0,0E0,0E0,0E0,0E0,0E0,0E0,0E0,0E0],"parents":[2147483647,0,0,1,1,2,2,3,3,4,4,5,5,6,6,7,7,8,8,9,9,10,10,11,11,12,12,13,13,14,14,17,17,18,18,19,19,20,20,21,21,22,22,23,23,24,24,25,25,26,26,27,27,28,28,29,29,30,30],"right_children":[2,4,6,8,10,12,14,16,18,20,22,24,26,28,30,-1,-1,32,34,36,38,40,42,44,46,48,50,52,54,56,58,-1,-1,-1,-1,-1,-1,-1,-1,-1,-1,-1,-1,-1,-1,-1,-1,-1,-1,-1,-1,-1,-1,-1,-1,-1,-1,-1,-1],"split_conditions":[2.86575E2,1.41575E2,5.05775E2,6.505E1,1E1,1E1,6.465E2,2.94E1,1.2246469E-16,-3.125E0,1.985E2,3E0,3.716E2,4E0,5E0,-1.2958363E-2,-1.1943266E-2,5.593557E1,1E1,2.04975E2,2E0,8.660254E-1,1.1E1,3.5735E2,1.2E1,-8.9E0,5E0,6E0,2.4075E1,2.575E1,4.1848133E1,-1.2014359E-2,-1.0199152E-2,-9.860425E-3,-8.06472E-3,-5.7164966E-3,-2.3288469E-4,-1.103296E-2,-6.4814235E-3,-5.4012355E-4,-5.2605118E-3,1.5163677E-3,5.184588E-3,-5.8522327E-3,-4.3552825E-3,3.8797029E-3,-3.3027634E-3,-4.6270317E-3,1.0218087E-2,8.567222E-3,1.607061E-2,4.8681386E-3,3.0833797E-3,1.4170422E-2,8.516389E-3,1.2219861E-2,9.53015E-3,1.8166414E-2,1.3839359E-2],"split_indices":[0,0,0,0,4,4,0,0,5,1,0,3,0,3,3,0,0,7,3,0,3,5,4,0,3,1,3,4,1,1,7,0,0,0,0,0,0,0,0,0,0,0,0,0,0,0,0,0,0,0,0,0,0,0,0,0,0,0,0],"split_type":[0,0,0,0,0,0,0,0,0,0,0,0,0,0,0,0,0,0,0,0,0,0,0,0,0,0,0,0,0,0,0,0,0,0,0,0,0,0,0,0,0,0,0,0,0,0,0,0,0,0,0,0,0,0,0,0,0,0,0],"sum_hessian":[1.2145E4,6.342E3,5.803E3,3.938E3,2.404E3,2.573E3,3.23E3,2.344E3,1.594E3,1.787E3,6.17E2,2.244E3,3.29E2,1.322E3,1.908E3,1.465E3,8.79E2,3.84E2,1.21E3,4.28E2,1.359E3,2.93E2,3.24E2,2.35E2,2.009E3,1.79E2,1.5E2,1.75E2,1.147E3,1.67E2,1.741E3,3.32E2,5.2E1,8.02E2,4.08E2,1.74E2,2.54E2,2.16E2,1.143E3,1.14E2,1.79E2,1.22E2,2.02E2,8.7E1,1.48E2,1.777E3,2.32E2,7E0,1.72E2,8E0,1.42E2,5.5E1,1.2E2,7.06E2,4.41E2,8.9E1,7.8E1,1.459E3,2.82E2],"tree_param":{"num_deleted":"0","num_feature":"9","num_nodes":"59","size_leaf_vector":"1"}},{"base_weights":[-1.9769906E-4,-1.4069957E-1,2.1909718E-1,-2.036457E-1,-2.8313745E-2,1.3455714E-1,3.060252E-1,-2.3153016E-1,-1.5407744E-1,-5.9409466E-2,9.612206E-2,1.0384413E-1,2.5081772E-1,2.658947E-1,3.4713906E-1,-2.432168E-1,-2.1103862E-1,-1.7397964E-1,-1.05402656E-1,3.503848E-2,-8.60116E-2,4.1220967E-2,1.5624397E-1,5.613857E-2,1.7793553E-1,2.0975082E-1,3.139591E-1,3.373431E-1,2.3574555E-1,3.704333E-1,3.2062423E-1,-1.2470069E-2,-1.183513E-2,-1.1102431E-2,-9.345519E-3,-7.1780495E-3,-9.616518E-3,-2.9646535E-3,-6.9729383E-3,-2.166327E-3,4.161285E-3,-6.25866E-3,-1.9927076E-3,8.707863E-3,1.3491855E-3,-5.9857187E-3,8.225792E-3,2.7210825E-5,5.293288E-3,6.4558196E-3,1.2577503E-2,6.323078E-3,1.3282296E-2,1.1425855E-2,1.658224E-2,6.5566525E-3,1.7703546E-2,1.0766185E-2,1.8288445E-2,1.6132526E-2,1.934242E-2,1.4242156E-2,1.6961116E-2],"categories":[],"categories_nodes":[],"categories_segments":[],"categories_sizes":[],"default_left":[0,0,0,0,0,0,0,0,0,0,0,0,0,0,0,0,0,0,0,0,0,0,0,0,0,0,0,0,0,0,0,0,0,0,0,0,0,0,0,0,0,0,0,0,0,0,0,0,0,0,0,0,0,0,0,0,0,0,0,0,0,0,0],"id":8,"left_children":[1,3,5,7,9,11,13,15,17,19,21,23,25,27,29,31,33,35,37,39,41,43,45,47,49,51,53,55,57,59,61,-1,-1,-1,-1,-1,-1,-1,-1,-1,-1,-1,-1,-1,-1,-1,-1,-1,-1,-1,-1,-1,-1,-1,-1,-1,-1,-1,-1,-1,-1,-1,-1],"loss_changes":[3.7636053E2,5.266205E1,3.5013077E1,6.560089E0,1.0352543E1,8.615078E0,3.7866516E0,6.795654E-1,1.6488571E0,5.3798003E0,1.7594652E0,6.762251E0,1.2436218E0,2.4924774E0,5.964508E-1,1.9004822E-2,2.5496292E-1,6.533966E-1,7.8002834E-1,1.7821922E0,3.0137024E0,5.271348E-1,6.017809E-1,3.2261736E0,2.6628666E0,1.4049425E0,2.2189903E-1,1.1677704E0,2.1596794E0,3.5364532E-1,2.687149E-1,0E0,0E0,0E0,0E0,0E0,0E0,0E0,0E0,0E0,0E0,0E0,0E0,0E0,0E0,0E0,0E0,0E0,0E0,0E0,0E0,0E0,0E0,0E0,0E0,0E0,0E0,0E0,0E0,0E0,0E0,0E0,0E0],"parents":[2147483647,0,0,1,1,2,2,3,3,4,4,5,5,6,6,7,7,8,8,9,9,10,10,11,11,12,12,13,13,14,14,15,15,16,16,17,17,18,18,19,19,20,20,21,21,22,22,23,23,24,24,25,25,26,26,27,27,28,28,29,29,30,30],"right_children":[2,4,6,8,10,12,14,16,18,20,22,24,26,28,30,32,34,36,38,40,42,44,46,48,50,52,54,56,58,60,62,-1,-1,-1,-1,-1,-1,-1,-1,-1,-1,-1,-1,-1,-1,-1,-1,-1,-1,-1,-1,-1,-1,-1,-1,-1,-1,-1,-1,-1,-1,-1,-1],"split_conditions":[3.6765E2,1.8755E2,5.95575E2,9.585E1,1E1,9E0,7.41325E2,4.515E1,1E1,-4.2E0,2.549E2,8.660254E-1,1E1,5E0,2.6975E1,1.68E1,1E1,4E0,8.660254E-1,-8.25E0,2.7645E2,-8.25E0,-1.31E1,4.73025E2,4.97475E2,4.68425E2,3.9805E2,-1.4375E1,9E0,8.144248E0,8.055E2,-1.2470069E-2,-1.183513E-2,-1.1102431E-2,-9.345519E-3,-7.1780495E-3,-9.616518E-3,-2.9646535E-3,-6.9729383E-3,-2.166327E-3,4.161285E-3,-6.25866E-3,-1.9927076E-3,8.707863E-3,1.3491855E-3,-5.9857187E-3,8.225792E-3,2.7210825E-5,5.293288E-3,6.4558196E-3,1.2577503E-2,6.323078E-3,1.3282296E-2,1.1425855E-2,1.658224E-2,6.5566525E-3,1.7703546E-2,1.0766185E-2,1.8288445E-2,1.6132526E-2,1.934242E-2,1.4242156E-2,1.6961116E-2],"split_indices":[0,0,0,0,4,4,0,0,4,1,0,6,4,4,1,0,4,4,5,2,0,2,1,0,0,0,0,1,4,7,0,0,0,0,0,0,0,0,0,0,0,0,0,0,0,0,0,0,0,0,0,0,0,0,0,0,0,0,0,0,0,0,0],"split_type":[0,0,0,0,0,0,0,0,0,0,0,0,0,0,0,0,0,0,0,0,0,0,0,0,0,0,0,0,0,0,0,0,0,0,0,0,0,0,0,0,0,0,0,0,0,0,0,0,0,0,0,0,0,0,0,0,0,0,0,0,0,0,0],"sum_hessian":[1.2213E4,7.444E3,4.769E3,4.771E3,2.673E3,2.419E3,2.35E3,3.051E3,1.72E3,2.139E3,5.34E2,1.915E3,5.04E2,1.193E3,1.157E3,1.936E3,1.115E3,1.219E3,5.01E2,4.7E2,1.669E3,2.8E2,2.54E2,1.166E3,7.49E2,3.08E2,1.96E2,3.51E2,8.42E2,6.09E2,5.48E2,9.74E2,9.62E2,7.6E2,3.55E2,4.62E2,7.57E2,2.14E2,2.87E2,1.79E2,2.91E2,9.02E2,7.67E2,2.6E1,2.54E2,7E0,2.47E2,5.51E2,6.15E2,4.52E2,2.97E2,1.25E2,1.83E2,3.6E1,1.6E2,2.7E1,3.24E2,7.3E2,1.12E2,1.61E2,4.48E2,1.93E2,3.55E2],"tree_param":{"num_deleted":"0","num_feature":"9","num_nodes":"63","size_leaf_vector":"1"}},{"base_weights":[7.7129115E-4,-1.3966776E-1,1.9926019E-1,-1.9826014E-1,-4.095636E-2,1.1515826E-1,2.9124358E-1,-2.1824585E-1,-1.484535E-1,-7.136005E-2,6.832524E-2,8.507232E-2,2.2198278E-1,1.7907809E-1,3.0468896E-1,-2.3047948E-1,-1.9894414E-1,-1.6649272E-1,-1.0695272E-1,1.2999603E-2,-9.6989766E-2,2.2603676E-2,1.400725E-1,4.0001944E-2,1.5495738E-1,1.5962036E-1,2.620878E-1,6.4783365E-2,1.8994248E-1,3.1709075E-1,1.9671169E-1,-1.1831084E-2,-1.11904275E-2,-1.0461259E-2,-8.76657E-3,-5.9389863E-3,-8.860124E-3,-3.0485052E-3,-6.8673617E-3,3.857962E-3,-2.4053978E-3,-6.6056745E-3,-2.8608046E-3,1.6955318E-2,8.076878E-4,-1.2409852E-3,7.559174E-3,-3.421582E-4,4.7916463E-3,5.580511E-3,1.1501357E-2,4.9271784E-3,1.0836137E-2,1.1367808E-2,1.5942415E-2,4.5704097E-4,3.340259E-3,1.0803002E-2,8.633002E-3,1.6866624E-2,1.4417266E-2,1.0560204E-2,4.6239835E-3],"categories":[],"categories_nodes":[],"categories_segments":[],"categories_sizes":[],"default_left":[0,0,0,0,0,0,0,0,0,0,0,0,0,0,0,0,0,0,0,0,0,0,0,0,0,0,0,0,0,0,0,0,0,0,0,0,0,0,0,0,0,0,0,0,0,0,0,0,0,0,0,0,0,0,0,0,0,0,0,0,0,0,0],"id":9,"left_children":[1,3,5,7,9,11,13,15,17,19,21,23,25,27,29,31,33,35,37,39,41,43,45,47,49,51,53,55,57,59,61,-1,-1,-1,-1,-1,-1,-1,-1,-1,-1,-1,-1,-1,-1,-1,-1,-1,-1,-1,-1,-1,-1,-1,-1,-1,-1,-1,-1,-1,-1,-1,-1],"loss_changes":[3.3771277E2,4.102748E1,3.88011E1,4.3992157E0,8.789735E0,8.414425E0,3.5603638E0,7.038574E-1,9.389572E-1,4.474674E0,1.886342E0,6.447631E0,1.3987675E0,3.0930614E-1,2.8019714E0,2.6412964E-2,2.6409912E-1,4.3322563E-1,5.366974E-1,1.8973805E0,2.2094784E0,7.1514237E-1,4.141469E-1,3.2620697E0,2.5873394E0,7.738228E-1,6.155205E-1,2.0893216E-3,6.921959E-2,1.018158E0,3.173256E-1,0E0,0E0,0E0,0E0,0E0,0E0,0E0,0E0,0E0,0E0,0E0,0E0,0E0,0E0,0E0,0E0,0E0,0E0,0E0,0E0,0E0,0E0,0E0,0E0,0E0,0E0,0E0,0E0,0E0,0E0,0E0,0E0],"parents":[2147483647,0,0,1,1,2,2,3,3,4,4,5,5,6,6,7,7,8,8,9,9,10,10,11,11,12,12,13,13,14,14,15,15,16,16,17,17,18,18,19,19,20,20,21,21,22,22,23,23,24,24,25,25,26,26,27,27,28,28,29,29,30,30],"right_children":[2,4,6,8,10,12,14,16,18,20,22,24,26,28,30,32,34,36,38,40,42,44,46,48,50,52,54,56,58,60,62,-1,-1,-1,-1,-1,-1,-1,-1,-1,-1,-1,-1,-1,-1,-1,-1,-1,-1,-1,-1,-1,-1,-1,-1,-1,-1,-1,-1,-1,-1,-1,-1],"split_conditions":[3.4485E2,1.70725E2,5.86125E2,1.021E2,1E1,9E0,5E0,4.705E1,1E1,-3.325E0,2.549E2,8.660254E-1,4.22775E2,4E0,1E1,1.734E1,1E1,-3.3E0,8.660254E-1,2E0,2.575E2,-1.835E1,-8.525E0,4.73025E2,4.867E2,1E1,1E1,-1.0834857E1,6E0,2.645E1,1.1E1,-1.1831084E-2,-1.11904275E-2,-1.0461259E-2,-8.76657E-3,-5.9389863E-3,-8.860124E-3,-3.0485052E-3,-6.8673617E-3,3.857962E-3,-2.4053978E-3,-6.6056745E-3,-2.8608046E-3,1.6955318E-2,8.076878E-4,-1.2409852E-3,7.559174E-3,-3.421582E-4,4.7916463E-3,5.580511E-3,1.1501357E-2,4.9271784E-3,1.0836137E-2,1.1367808E-2,1.5942415E-2,4.5704097E-4,3.340259E-3,1.0803002E-2,8.633002E-3,1.6866624E-2,1.4417266E-2,1.0560204E-2,4.6239835E-3],"split_indices":[0,0,0,0,4,4,3,0,4,1,0,6,0,3,3,0,4,2,5,4,0,1,1,0,0,4,4,7,4,1,3,0,0,0,0,0,0,0,0,0,0,0,0,0,0,0,0,0,0,0,0,0,0,0,0,0,0,0,0,0,0,0,0],"split_type":[0,0,0,0,0,0,0,0,0,0,0,0,0,0,0,0,0,0,0,0,0,0,0,0,0,0,0,0,0,0,0,0,0,0,0,0,0,0,0,0,0,0,0,0,0,0,0,0,0,0,0,0,0,0,0,0,0,0,0,0,0,0,0],"sum_hessian":[1.2113E4,7.094E3,5.019E3,4.451E3,2.643E3,2.623E3,2.396E3,3.174E3,1.277E3,2.068E3,5.75E2,2.048E3,5.75E2,2.58E2,2.138E3,1.936E3,1.238E3,8.88E2,3.89E2,4.82E2,1.586E3,3.52E2,2.23E2,1.246E3,8.02E2,2.27E2,3.48E2,2.3E1,2.35E2,1.916E3,2.22E2,9.9E2,9.46E2,8.57E2,3.81E2,1.65E2,7.23E2,1.56E2,2.33E2,2.35E2,2.47E2,8.41E2,7.45E2,6E0,3.46E2,1.4E1,2.09E2,6.78E2,5.68E2,5.1E2,2.92E2,1.11E2,1.16E2,2.19E2,1.29E2,1E0,2.2E1,8.9E1,1.46E2,1.118E3,7.98E2,1.94E2,2.8E1],"tree_param":{"num_deleted":"0","num_feature":"9","num_nodes":"63","size_leaf_vector":"1"}},{"base_weights":[-3.963599E-4,-1.5147913E-1,1.6587608E-1,-1.9710319E-1,-7.438799E-2,6.262922E-2,2.4894573E-1,-2.1421143E-1,-1.6592723E-1,-1.03641465E-1,1.1882505E-2,4.068779E-2,2.1137525E-1,2.0678371E-1,3.0885985E-1,-1.112024E-2,-2.0277895E-1,-2.026958E-1,-1.5495338E-1,-9.78643E-3,-9.036768E-2,-4.9676772E-2,6.480188E-2,-9.211177E-2,5.6521155E-2,1.6249922E-1,2.7494E-1,5.8849577E-2,2.2139533E-1,2.5910684E-1,3.223618E-1,-1.0687496E-2,-9.887542E-3,-1.0364002E-2,-8.610461E-3,-8.377052E-3,-6.4571574E-3,-3.8076777E-3,-9.080099E-3,6.2422565E-4,-4.414126E-3,9.315082E-4,4.7388575E-3,-4.0598954E-3,-5.376152E-3,3.5272315E-3,-3.0488295E-3,-4.450379E-3,8.63308E-3,1.4557304E-2,9.928004E-3,4.0434296E-3,2.4091983E-3,1.3368933E-2,9.003027E-3,1.0233315E-2,1.3516507E-2,1.7592447E-2,1.4995058E-2],"categories":[],"categories_nodes":[],"categories_segments":[],"categories_sizes":[],"default_left":[0,0,0,0,0,0,0,0,0,0,0,0,0,0,0,0,0,0,0,0,0,0,0,0,0,0,0,0,0,0,0,0,0,0,0,0,0,0,0,0,0,0,0,0,0,0,0,0,0,0,0,0,0,0,0,0,0,0,0],"id":10,"left_children":[1,3,5,7,9,11,13,15,17,19,21,23,25,27,29,-1,31,33,35,-1,37,39,41,43,45,47,49,51,53,55,57,-1,-1,-1,-1,-1,-1,-1,-1,-1,-1,-1,-1,-1,-1,-1,-1,-1,-1,-1,-1,-1,-1,-1,-1,-1,-1,-1,-1],"loss_changes":[3.038875E2,2.227742E1,4.9377518E1,2.087799E0,5.9521446E0,8.375849E0,7.9969177E0,1.9535065E-1,5.395355E-1,2.134861E0,1.9513106E0,4.7151747E0,9.805641E-1,4.0420456E0,8.0052185E-1,0E0,1.7471313E-2,9.305E-3,3.3379364E-1,0E0,1.9845638E0,6.6584194E-1,4.4388545E-1,3.146839E-2,3.30305E0,4.984355E-1,1.1796093E-1,3.6027312E-2,3.1963654E0,1.194191E-1,5.7730865E-1,0E0,0E0,0E0,0E0,0E0,0E0,0E0,0E0,0E0,0E0,0E0,0E0,0E0,0E0,0E0,0E0,0E0,0E0,0E0,0E0,0E0,0E0,0E0,0E0,0E0,0E0,0E0,0E0],"parents":[2147483647,0,0,1,1,2,2,3,3,4,4,5,5,6,6,7,7,8,8,9,9,10,10,11,11,12,12,13,13,14,14,16,16,17,17,18,18,20,20,21,21,22,22,23,23,24,24,25,25,26,26,27,27,28,28,29,29,30,30],"right_children":[2,4,6,8,10,12,14,16,18,20,22,24,26,28,30,-1,32,34,36,-1,38,40,42,44,46,48,50,52,54,56,58,-1,-1,-1,-1,-1,-1,-1,-1,-1,-1,-1,-1,-1,-1,-1,-1,-1,-1,-1,-1,-1,-1,-1,-1,-1,-1,-1,-1],"split_conditions":[2.86575E2,1.44025E2,5.05775E2,7.4725E1,1E1,1E1,7.15075E2,2.94E1,1.2246469E-16,2E0,1.985E2,3E0,3.86E2,4E0,6E0,-1.112024E-2,1.2246469E-16,5.593557E1,1E1,-9.78643E-3,1.3E1,8.660254E-1,1.1E1,7E0,1.2E1,-8.9E0,1.6875E1,6E0,2.145E1,5E0,2.575E1,-1.0687496E-2,-9.887542E-3,-1.0364002E-2,-8.610461E-3,-8.377052E-3,-6.4571574E-3,-3.8076777E-3,-9.080099E-3,6.2422565E-4,-4.414126E-3,9.315082E-4,4.7388575E-3,-4.0598954E-3,-5.376152E-3,3.5272315E-3,-3.0488295E-3,-4.450379E-3,8.63308E-3,1.4557304E-2,9.928004E-3,4.0434296E-3,2.4091983E-3,1.3368933E-2,9.003027E-3,1.0233315E-2,1.3516507E-2,1.7592447E-2,1.4995058E-2],"split_indices":[0,0,0,0,4,4,0,0,5,3,0,3,0,3,3,0,5,7,3,0,3,5,4,4,3,1,1,4,1,3,1,0,0,0,0,0,0,0,0,0,0,0,0,0,0,0,0,0,0,0,0,0,0,0,0,0,0,0,0],"split_type":[0,0,0,0,0,0,0,0,0,0,0,0,0,0,0,0,0,0,0,0,0,0,0,0,0,0,0,0,0,0,0,0,0,0,0,0,0,0,0,0,0,0,0,0,0,0,0,0,0,0,0,0,0,0,0,0,0,0,0],"sum_hessian":[1.2095E4,6.337E3,5.758E3,3.98E3,2.357E3,2.568E3,3.19E3,2.566E3,1.414E3,1.76E3,5.97E2,2.239E3,3.29E2,1.875E3,1.315E3,1.484E3,1.082E3,3.21E2,1.093E3,2.2E2,1.54E3,2.76E2,3.21E2,2.38E2,2.001E3,1.88E2,1.41E2,1.69E2,1.706E3,2.85E2,1.03E3,3.27E2,7.55E2,2.74E2,4.7E1,7.31E2,3.62E2,1.334E3,2.06E2,1.06E2,1.7E2,1.27E2,1.94E2,1.43E2,9.5E1,1.788E3,2.13E2,7E0,1.81E2,1.14E2,2.7E1,5.3E1,1.16E2,8.05E2,9.01E2,5.2E1,2.33E2,4.39E2,5.91E2],"tree_param":{"num_deleted":"0","num_feature":"9","num_nodes":"59","size_leaf_vector":"1"}},{"base_weights":[-6.9427694E-4,-1.1611505E-1,1.9358176E-1,-1.743836E-1,-1.9259287E-2,1.257095E-1,2.6745477E-1,-1.9677697E-1,-1.2907316E-1,-1.346973E-1,-4.1113788E-4,1.1862818E-2,1.4898497E-1,2.4066377E-1,3.1024334E-1,-2.0764999E-1,-1.7729203E-1,-1.836873E-1,-1.1991565E-1,-9.247853E-3,-1.02612436E-1,2.4894675E-2,-9.2688076E-2,-7.519416E-2,4.2205308E-2,1.7746952E-1,6.0046732E-2,2.170211E-1,2.9901665E-1,3.284567E-1,2.8572172E-1,-1.0682988E-2,-1.0080393E-2,-9.93085E-3,-8.449261E-3,-8.805349E-3,-1.0268701E-2,-6.8633216E-3,-4.589111E-3,-5.3957514E-3,-4.450648E-3,-9.59308E-4,2.6233E-3,-3.0995754E-3,-8.564608E-3,-4.4107027E-3,-3.4741552E-3,1.2912366E-3,2.7450053E-3,1.8000299E-4,9.363208E-3,4.120088E-3,-1.6451782E-3,1.3577561E-2,9.405135E-3,3.6794692E-3,1.5763687E-2,1.3637724E-2,1.6969113E-2,1.1629975E-2,1.4535576E-2],"categories":[],"categories_nodes":[],"categories_segments":[],"categories_sizes":[],"default_left":[0,0,0,0,0,0,0,0,0,0,0,0,0,0,0,0,0,0,0,0,0,0,0,0,0,0,0,0,0,0,0,0,0,0,0,0,0,0,0,0,0,0,0,0,0,0,0,0,0,0,0,0,0,0,0,0,0,0,0,0,0],"id":11,"left_children":[1,3,5,7,9,11,13,15,17,19,21,23,25,27,29,31,33,35,37,-1,39,41,43,45,47,49,51,53,55,57,59,-1,-1,-1,-1,-1,-1,-1,-1,-1,-1,-1,-1,-1,-1,-1,-1,-1,-1,-1,-1,-1,-1,-1,-1,-1,-1,-1,-1,-1,-1],"loss_changes":[2.7177277E2,4.2905273E1,2.2614273E1,4.791168E0,6.2161856E0,6.2412453E0,2.4037476E0,6.3584137E-1,7.6467705E-1,6.2766457E-1,5.7397532E0,1.0624254E0,4.944603E0,1.7755203E0,2.763977E-1,3.0708313E-2,1.6908646E-1,6.5660477E-4,6.463852E-1,0E0,8.205891E-3,2.3454497E0,1.2657928E0,1.6037226E-3,6.055069E-2,2.5214539E0,9.917947E-1,1.4517288E0,1.3767471E0,1.9285202E-1,2.8072357E-2,0E0,0E0,0E0,0E0,0E0,0E0,0E0,0E0,0E0,0E0,0E0,0E0,0E0,0E0,0E0,0E0,0E0,0E0,0E0,0E0,0E0,0E0,0E0,0E0,0E0,0E0,0E0,0E0,0E0,0E0],"parents":[2147483647,0,0,1,1,2,2,3,3,4,4,5,5,6,6,7,7,8,8,9,9,10,10,11,11,12,12,13,13,14,14,15,15,16,16,17,17,18,18,20,20,21,21,22,22,23,23,24,24,25,25,26,26,27,27,28,28,29,29,30,30],"right_children":[2,4,6,8,10,12,14,16,18,20,22,24,26,28,30,32,34,36,38,-1,40,42,44,46,48,50,52,54,56,58,60,-1,-1,-1,-1,-1,-1,-1,-1,-1,-1,-1,-1,-1,-1,-1,-1,-1,-1,-1,-1,-1,-1,-1,-1,-1,-1,-1,-1,-1,-1],"split_conditions":[3.86E2,1.8755E2,6.10925E2,1.021E2,3E0,4E0,7.85975E2,5.1625E1,1.2246469E-16,2E0,4.85756E1,3E0,4.5400936E1,8.660254E-1,2.7875E1,1.734E1,1.2246469E-16,1.4E1,9E0,-9.247853E-3,3.374E2,2.549E2,1.3E1,-2.4492937E-16,5.05775E2,-1.31E1,1.2E1,-5E-1,-1.365E1,6E0,6E0,-1.0682988E-2,-1.0080393E-2,-9.93085E-3,-8.449261E-3,-8.805349E-3,-1.0268701E-2,-6.8633216E-3,-4.589111E-3,-5.3957514E-3,-4.450648E-3,-9.59308E-4,2.6233E-3,-3.0995754E-3,-8.564608E-3,-4.4107027E-3,-3.4741552E-3,1.2912366E-3,2.7450053E-3,1.8000299E-4,9.363208E-3,4.120088E-3,-1.6451782E-3,1.3577561E-2,9.405135E-3,3.6794692E-3,1.5763687E-2,1.3637724E-2,1.6969113E-2,1.1629975E-2,1.4535576E-2],"split_indices":[0,0,0,0,3,3,0,0,5,3,7,3,7,6,1,0,5,3,3,0,0,0,3,6,0,1,3,6,1,3,3,0,0,0,0,0,0,0,0,0,0,0,0,0,0,0,0,0,0,0,0,0,0,0,0,0,0,0,0,0,0],"split_type":[0,0,0,0,0,0,0,0,0,0,0,0,0,0,0,0,0,0,0,0,0,0,0,0,0,0,0,0,0,0,0,0,0,0,0,0,0,0,0,0,0,0,0,0,0,0,0,0,0,0,0,0,0,0,0,0,0,0,0,0,0],"sum_hessian":[1.2118E4,7.602E3,4.516E3,4.746E3,2.856E3,2.355E3,2.161E3,3.174E3,1.572E3,4E2,2.456E3,4E2,1.955E3,1.333E3,8.28E2,2.031E3,1.143E3,2.23E2,1.349E3,1.54E2,2.46E2,1.928E3,5.28E2,1.03E2,2.97E2,1.48E3,4.75E2,9.52E2,3.81E2,4.68E2,3.6E2,1.001E3,1.03E3,3.14E2,8.29E2,1.72E2,5.1E1,8.32E2,5.17E2,1.72E2,7.4E1,7.42E2,1.186E3,3.81E2,1.47E2,2.7E1,7.6E1,1.31E2,1.66E2,7.9E1,1.401E3,3.83E2,9.2E1,3.27E2,6.25E2,2.6E1,3.55E2,8.1E1,3.87E2,3.5E1,3.25E2],"tree_param":{"num_deleted":"0","num_feature":"9","num_nodes":"61","size_leaf_vector":"1"}},{"base_weights":[-2.5903148E-4,-1.1608485E-1,1.7734383E-1,-1.656602E-1,-2.5590021E-2,1.0756736E-1,2.512703E-1,-1.8877429E-1,-1.2623659E-1,-5.3742144E-2,8.2872145E-2,8.081683E-2,2.0694733E-1,2.2410883E-1,2.905727E-1,-1.9798823E-1,-1.7287493E-1,-1.4312387E-1,-8.482727E-2,1.979533E-2,-7.414865E-2,3.2072958E-2,1.3489217E-1,1.3710114E-1,4.1357104E-2,1.634416E-1,2.5237882E-1,2.8386843E-1,1.9919372E-1,3.1839472E-1,2.7360666E-1,-1.0166343E-2,-9.627419E-3,-9.097158E-3,-7.6129413E-3,-5.722916E-3,-7.997161E-3,-5.82195E-3,-2.5353287E-3,-3.3434571E-3,3.1030579E-3,-8.769568E-3,-3.1731375E-3,1.5810637E-2,1.2795973E-3,-5.9353933E-3,7.0612705E-3,1.7297352E-3,7.926988E-3,-6.250338E-4,4.080265E-3,5.346266E-3,1.0917027E-2,1.1296376E-2,1.58052E-2,5.510959E-3,1.4800625E-2,8.271528E-3,1.2797001E-2,1.5939288E-2,4.518725E-3,1.1469336E-2,1.4108296E-2],"categories":[],"categories_nodes":[],"categories_segments":[],"categories_sizes":[],"default_left":[0,0,0,0,0,0,0,0,0,0,0,0,0,0,0,0,0,0,0,0,0,0,0,0,0,0,0,0,0,0,0,0,0,0,0,0,0,0,0,0,0,0,0,0,0,0,0,0,0,0,0,0,0,0,0,0,0,0,0,0,0,0,0],"id":12,"left_children":[1,3,5,7,9,11,13,15,17,19,21,23,25,27,29,31,33,35,37,39,41,43,45,47,49,51,53,55,57,59,61,-1,-1,-1,-1,-1,-1,-1,-1,-1,-1,-1,-1,-1,-1,-1,-1,-1,-1,-1,-1,-1,-1,-1,-1,-1,-1,-1,-1,-1,-1,-1,-1],"loss_changes":[2.4993764E2,3.2988106E1,2.4712296E1,4.305481E0,7.9556127E0,6.5470295E0,2.420044E0,4.0422058E-1,1.2179127E0,3.104796E0,1.414736E0,4.3185472E0,9.924774E-1,1.999649E0,3.6036682E-1,1.5686035E-2,1.790657E-1,5.833988E-1,5.463462E-1,1.6524752E0,1.7404156E0,4.9464065E-1,4.4238377E-1,1.7569866E0,2.485179E0,8.143778E-1,3.567295E-1,8.193321E-1,1.8314438E0,2.6626587E-3,1.6085434E-1,0E0,0E0,0E0,0E0,0E0,0E0,0E0,0E0,0E0,0E0,0E0,0E0,0E0,0E0,0E0,0E0,0E0,0E0,0E0,0E0,0E0,0E0,0E0,0E0,0E0,0E0,0E0,0E0,0E0,0E0,0E0,0E0],"parents":[2147483647,0,0,1,1,2,2,3,3,4,4,5,5,6,6,7,7,8,8,9,9,10,10,11,11,12,12,13,13,14,14,15,15,16,16,17,17,18,18,19,19,20,20,21,21,22,22,23,23,24,24,25,25,26,26,27,27,28,28,29,29,30,30],"right_children":[2,4,6,8,10,12,14,16,18,20,22,24,26,28,30,32,34,36,38,40,42,44,46,48,50,52,54,56,58,60,62,-1,-1,-1,-1,-1,-1,-1,-1,-1,-1,-1,-1,-1,-1,-1,-1,-1,-1,-1,-1,-1,-1,-1,-1,-1,-1,-1,-1,-1,-1,-1,-1],"split_conditions":[3.64675E2,1.8755E2,5.95575E2,9.3775E1,1E1,9E0,7.70375E2,4.515E1,1E1,-4.2E0,2.5185E2,5E0,4.73025E2,5E0,6E0,1.68E1,1E1,4E0,1.41575E2,6E0,2E0,-1.835E1,-1.31E1,-2.75E0,4.57075E2,1E1,1E1,-1.365E1,8E0,1E1,6E0,-1.0166343E-2,-9.627419E-3,-9.097158E-3,-7.6129413E-3,-5.722916E-3,-7.997161E-3,-5.82195E-3,-2.5353287E-3,-3.3434571E-3,3.1030579E-3,-8.769568E-3,-3.1731375E-3,1.5810637E-2,1.2795973E-3,-5.9353933E-3,7.0612705E-3,1.7297352E-3,7.926988E-3,-6.250338E-4,4.080265E-3,5.346266E-3,1.0917027E-2,1.1296376E-2,1.58052E-2,5.510959E-3,1.4800625E-2,8.271528E-3,1.2797001E-2,1.5939288E-2,4.518725E-3,1.1469336E-2,1.4108296E-2],"split_indices":[0,0,0,0,4,4,0,0,4,1,0,4,0,4,4,0,4,4,0,3,3,1,1,2,0,4,4,1,4,3,3,0,0,0,0,0,0,0,0,0,0,0,0,0,0,0,0,0,0,0,0,0,0,0,0,0,0,0,0,0,0,0,0],"split_type":[0,0,0,0,0,0,0,0,0,0,0,0,0,0,0,0,0,0,0,0,0,0,0,0,0,0,0,0,0,0,0,0,0,0,0,0,0,0,0,0,0,0,0,0,0,0,0,0,0,0,0,0,0,0,0,0,0,0,0,0,0,0,0],"sum_hessian":[1.2148E4,7.353E3,4.795E3,4.75E3,2.603E3,2.468E3,2.327E3,2.992E3,1.758E3,2.067E3,5.36E2,1.946E3,5.22E2,1.38E3,9.47E2,1.887E3,1.105E3,1.247E3,5.11E2,4.49E2,1.618E3,2.72E2,2.64E2,8.01E2,1.145E3,2.69E2,2.53E2,4.03E2,9.77E2,3.52E2,5.95E2,9.34E2,9.53E2,7.62E2,3.43E2,4.64E2,7.83E2,2.64E2,2.47E2,1.47E2,3.02E2,1.53E2,1.465E3,5E0,2.67E2,6E0,2.58E2,1.39E2,6.62E2,4.9E2,6.55E2,1.34E2,1.35E2,1.82E2,7.1E1,2.7E1,3.76E2,6.15E2,3.62E2,3.51E2,1E0,1.01E2,4.94E2],"tree_param":{"num_deleted":"0","num_feature":"9","num_nodes":"63","size_leaf_vector":"1"}},{"base_weights":[-6.544255E-4,-1.0899574E-1,1.7071195E-1,-1.615436E-1,-3.0014064E-2,1.04896866E-1,2.3837852E-1,-1.7965713E-1,-1.2444441E-1,4.2591123E-3,-7.897124E-2,2.9646258E-3,1.279241E-1,2.1176809E-1,2.7673912E-1,-1.8798046E-1,-1.6413873E-1,-1.7007E-1,-1.14616044E-1,-3.7464105E-2,4.772393E-2,-3.3071894E-2,-1.0557038E-1,-7.295685E-2,3.4488037E-2,1.5441146E-1,4.5006912E-2,2.5960004E-1,1.8411578E-1,2.916363E-1,2.5087625E-1,-9.657231E-3,-9.135461E-3,-9.03255E-3,-7.892328E-3,-8.8340165E-3,-7.4452274E-3,-8.86356E-3,-5.414044E-3,6.709311E-5,-3.4031153E-3,4.6894243E-3,-3.3707015E-4,-5.079729E-3,-8.577388E-4,-6.5322467E-3,-3.0298233E-3,-4.3126675E-3,-3.293118E-3,8.927597E-4,2.4461204E-3,1.5703787E-3,8.302109E-3,3.3482462E-3,-1.5466432E-3,4.105007E-3,1.3495604E-2,1.1641249E-2,8.118912E-3,1.2269307E-2,1.5068458E-2,1.145125E-2,1.3318494E-2],"categories":[],"categories_nodes":[],"categories_segments":[],"categories_sizes":[],"default_left":[0,0,0,0,0,0,0,0,0,0,0,0,0,0,0,0,0,0,0,0,0,0,0,0,0,0,0,0,0,0,0,0,0,0,0,0,0,0,0,0,0,0,0,0,0,0,0,0,0,0,0,0,0,0,0,0,0,0,0,0,0,0,0],"id":13,"left_children":[1,3,5,7,9,11,13,15,17,19,21,23,25,27,29,31,33,35,37,39,41,43,45,47,49,51,53,55,57,59,61,-1,-1,-1,-1,-1,-1,-1,-1,-1,-1,-1,-1,-1,-1,-1,-1,-1,-1,-1,-1,-1,-1,-1,-1,-1,-1,-1,-1,-1,-1,-1,-1],"loss_changes":[2.260975E2,3.096067E1,2.0982056E1,2.988182E0,5.003887E0,5.6165123E0,2.314743E0,3.5767365E-1,6.410389E-1,3.1844664E0,1.4957528E0,1.0603564E0,4.2801437E0,1.77351E0,2.924652E-1,1.7822266E-2,8.1409454E-2,9.92775E-3,4.6307564E-1,1.0639952E0,2.1583047E0,4.912462E-1,8.683071E-1,6.5823197E-3,7.427293E-2,2.1106796E0,7.9246E-1,8.966942E-1,8.897209E-1,1.9433594E-1,5.8843613E-2,0E0,0E0,0E0,0E0,0E0,0E0,0E0,0E0,0E0,0E0,0E0,0E0,0E0,0E0,0E0,0E0,0E0,0E0,0E0,0E0,0E0,0E0,0E0,0E0,0E0,0E0,0E0,0E0,0E0,0E0,0E0,0E0],"parents":[2147483647,0,0,1,1,2,2,3,3,4,4,5,5,6,6,7,7,8,8,9,9,10,10,11,11,12,12,13,13,14,14,15,15,16,16,17,17,18,18,19,19,20,20,21,21,22,22,23,23,24,24,25,25,26,26,27,27,28,28,29,29,30,30],"right_children":[2,4,6,8,10,12,14,16,18,20,22,24,26,28,30,32,34,36,38,40,42,44,46,48,50,52,54,56,58,60,62,-1,-1,-1,-1,-1,-1,-1,-1,-1,-1,-1,-1,-1,-1,-1,-1,-1,-1,-1,-1,-1,-1,-1,-1,-1,-1,-1,-1,-1,-1,-1,-1],"split_conditions":[3.716E2,1.70725E2,5.95575E2,9.3775E1,1.545E1,4E0,7.70375E2,4.705E1,1.2246469E-16,2.549E2,-5E-1,3E0,4.5400936E1,2.0675E1,2.895E1,1.68E1,1.2246469E-16,5.593557E1,2E0,1.2246469E-16,8.660254E-1,2.0985E2,2.86575E2,-2.4492937E-16,5.05775E2,-2.75E0,1.2E1,-1.365E1,-5E-1,6E0,8.35125E2,-9.657231E-3,-9.135461E-3,-9.03255E-3,-7.892328E-3,-8.8340165E-3,-7.4452274E-3,-8.86356E-3,-5.414044E-3,6.709311E-5,-3.4031153E-3,4.6894243E-3,-3.3707015E-4,-5.079729E-3,-8.577388E-4,-6.5322467E-3,-3.0298233E-3,-4.3126675E-3,-3.293118E-3,8.927597E-4,2.4461204E-3,1.5703787E-3,8.302109E-3,3.3482462E-3,-1.5466432E-3,4.105007E-3,1.3495604E-2,1.1641249E-2,8.118912E-3,1.2269307E-2,1.5068458E-2,1.145125E-2,1.3318494E-2],"split_indices":[0,0,0,0,1,3,0,0,5,0,6,3,7,1,1,0,5,7,3,6,6,0,0,6,0,2,3,1,6,3,0,0,0,0,0,0,0,0,0,0,0,0,0,0,0,0,0,0,0,0,0,0,0,0,0,0,0,0,0,0,0,0,0],"split_type":[0,0,0,0,0,0,0,0,0,0,0,0,0,0,0,0,0,0,0,0,0,0,0,0,0,0,0,0,0,0,0,0,0,0,0,0,0,0,0,0,0,0,0,0,0,0,0,0,0,0,0,0,0,0,0,0,0,0,0,0,0,0,0],"sum_hessian":[1.2176E4,7.46E3,4.716E3,4.479E3,2.981E3,2.392E3,2.324E3,3.007E3,1.472E3,1.754E3,1.227E3,4.41E2,1.951E3,1.376E3,9.48E2,1.95E3,1.057E3,2.58E2,1.214E3,8.95E2,8.59E2,4.51E2,7.76E2,1.29E2,3.12E2,1.478E3,4.73E2,5.01E2,8.75E2,5.95E2,3.53E2,9.67E2,9.83E2,2.84E2,7.73E2,1.91E2,6.7E1,1.09E2,1.105E3,3.95E2,5E2,4.65E2,3.94E2,8.4E1,3.67E2,4.97E2,2.79E2,4.1E1,8.8E1,1.46E2,1.66E2,1.28E2,1.35E3,3.67E2,1.06E2,2.8E1,4.73E2,2.67E2,6.08E2,1.08E2,4.87E2,1.53E2,2E2],"tree_param":{"num_deleted":"0","num_feature":"9","num_nodes":"63","size_leaf_vector":"1"}},{"base_weights":[-1.2928678E-4,-1.03725456E-1,1.6259253E-1,-1.4775434E-1,-1.689766E-2,1.01568975E-1,2.2766475E-1,-1.6901629E-1,-1.0841975E-1,1.9537378E-2,-6.7652725E-2,1.4349403E-3,1.228617E-1,1.9278933E-1,2.5397518E-1,-1.7782755E-1,-1.520119E-1,-1.5887028E-1,-1.0001193E-1,-1.14709616E-1,3.1498287E-2,-2.2412932E-2,-9.456829E-2,-7.002747E-2,3.2158993E-2,1.4728291E-1,4.438525E-2,1.7887685E-1,1.5384279E-2,2.1212544E-1,2.6431367E-1,-9.118921E-3,-8.583537E-3,-8.582057E-3,-7.210812E-3,-7.6509784E-3,-8.9313835E-3,-5.8836793E-3,-3.5553693E-3,-7.926151E-3,-4.391731E-3,3.2155307E-3,-9.4347785E-4,-4.9634213E-3,-4.4796919E-4,-6.0809217E-3,-2.9049644E-3,-4.136242E-3,-3.1585798E-3,7.8120496E-4,2.3460293E-3,5.5481163E-3,9.180045E-3,3.327549E-3,-1.6084552E-3,1.4238297E-2,8.224605E-3,9.847346E-3,1.1947249E-2,1.3809487E-2,1.132336E-2],"categories":[],"categories_nodes":[],"categories_segments":[],"categories_sizes":[],"default_left":[0,0,0,0,0,0,0,0,0,0,0,0,0,0,0,0,0,0,0,0,0,0,0,0,0,0,0,0,0,0,0,0,0,0,0,0,0,0,0,0,0,0,0,0,0,0,0,0,0,0,0,0,0,0,0,0,0,0,0,0,0],"id":14,"left_children":[1,3,5,7,9,11,13,15,17,19,21,23,25,27,29,31,33,35,37,39,41,43,45,47,49,51,53,55,-1,57,59,-1,-1,-1,-1,-1,-1,-1,-1,-1,-1,-1,-1,-1,-1,-1,-1,-1,-1,-1,-1,-1,-1,-1,-1,-1,-1,-1,-1,-1,-1],"loss_changes":[2.0432802E2,2.8310135E1,1.869986E1,4.0914E0,4.611533E0,5.191551E0,2.0440445E0,4.5063782E-1,7.166672E-1,2.335113E0,1.2666769E0,9.419751E-1,3.8417778E0,1.5194778E0,5.0509644E-1,2.735138E-2,1.42807E-1,9.875298E-4,7.4870586E-1,1.2619686E-1,2.2058969E0,4.0236244E-1,6.371131E-1,6.0038567E-3,7.249132E-2,1.9991531E0,8.13251E-1,1.2950897E0,0E0,5.959606E-2,4.0309906E-1,0E0,0E0,0E0,0E0,0E0,0E0,0E0,0E0,0E0,0E0,0E0,0E0,0E0,0E0,0E0,0E0,0E0,0E0,0E0,0E0,0E0,0E0,0E0,0E0,0E0,0E0,0E0,0E0,0E0,0E0],"parents":[2147483647,0,0,1,1,2,2,3,3,4,4,5,5,6,6,7,7,8,8,9,9,10,10,11,11,12,12,13,13,14,14,15,15,16,16,17,17,18,18,19,19,20,20,21,21,22,22,23,23,24,24,25,25,26,26,27,27,29,29,30,30],"right_children":[2,4,6,8,10,12,14,16,18,20,22,24,26,28,30,32,34,36,38,40,42,44,46,48,50,52,54,56,-1,58,60,-1,-1,-1,-1,-1,-1,-1,-1,-1,-1,-1,-1,-1,-1,-1,-1,-1,-1,-1,-1,-1,-1,-1,-1,-1,-1,-1,-1,-1,-1],"split_conditions":[3.6765E2,1.985E2,6.0035E2,1.021E2,1.545E1,4E0,7.201E2,5.3625E1,1.2246469E-16,3E0,-5E-1,3E0,4.5400936E1,1E0,6E0,2.1525E1,1.2246469E-16,1.4E1,9E0,2E0,8.660254E-1,3E0,2.80225E2,-2.4492937E-16,5.05775E2,4.867E2,1.2E1,-8.660254E-1,1.5384279E-2,5E-1,3.648422E1,-9.118921E-3,-8.583537E-3,-8.582057E-3,-7.210812E-3,-7.6509784E-3,-8.9313835E-3,-5.8836793E-3,-3.5553693E-3,-7.926151E-3,-4.391731E-3,3.2155307E-3,-9.4347785E-4,-4.9634213E-3,-4.4796919E-4,-6.0809217E-3,-2.9049644E-3,-4.136242E-3,-3.1585798E-3,7.8120496E-4,2.3460293E-3,5.5481163E-3,9.180045E-3,3.327549E-3,-1.6084552E-3,1.4238297E-2,8.224605E-3,9.847346E-3,1.1947249E-2,1.3809487E-2,1.132336E-2],"split_indices":[0,0,0,0,1,3,0,0,5,3,6,3,7,6,3,0,5,3,3,3,6,3,0,6,0,0,3,6,0,6,7,0,0,0,0,0,0,0,0,0,0,0,0,0,0,0,0,0,0,0,0,0,0,0,0,0,0,0,0,0,0],"split_type":[0,0,0,0,0,0,0,0,0,0,0,0,0,0,0,0,0,0,0,0,0,0,0,0,0,0,0,0,0,0,0,0,0,0,0,0,0,0,0,0,0,0,0,0,0,0,0,0,0,0,0,0,0,0,0,0,0,0,0,0,0],"sum_hessian":[1.2119E4,7.405E3,4.714E3,4.913E3,2.492E3,2.434E3,2.28E3,3.187E3,1.726E3,1.451E3,1.041E3,4.27E2,2.007E3,9.84E2,1.296E3,2.093E3,1.094E3,2.44E2,1.482E3,1.18E2,1.333E3,3.89E2,6.52E2,1.28E2,2.99E2,1.53E3,4.77E2,8.8E2,1.04E2,2.61E2,1.035E3,1.187E3,9.06E2,3.05E2,7.89E2,1.95E2,4.9E1,9.18E2,5.64E2,4.3E1,7.5E1,8.07E2,5.26E2,5.7E1,3.32E2,3.73E2,2.79E2,4.1E1,8.7E1,1.42E2,1.57E2,7.67E2,7.63E2,3.7E2,1.07E2,1.03E2,7.77E2,1.72E2,8.9E1,7.83E2,2.52E2],"tree_param":{"num_deleted":"0","num_feature":"9","num_nodes":"61","size_leaf_vector":"1"}},{"base_weights":[-6.153645E-4,-9.41726E-2,7.951523E-2,-1.6586299E-1,-6.4019784E-2,-2.7004171E-2,1.4583187E-1,-1.6961953E-1,-7.2527677E-3,-1.1858318E-1,5.2442093E-4,-1.0894576E-1,1.2409565E-2,4.974557E-2,1.7908698E-1,-8.638702E-3,-1.6169299E-1,-1.5347818E-1,-8.594931E-2,4.7287706E-2,-8.613254E-2,-1.3289982E-1,-5.909716E-2,6.1683998E-2,-3.80571E-2,5.652812E-3,8.9923E-2,1.4312331E-1,2.0053095E-1,-7.189023E-3,-8.444058E-3,-8.207128E-3,-6.810078E-3,-5.130149E-3,2.0983312E-3,4.546404E-3,3.974489E-4,-5.410146E-3,-2.8688551E-3,-4.865648E-3,-7.4715293E-3,-3.8243772E-3,3.0047278E-4,9.310731E-4,8.458822E-3,-5.298358E-3,7.341301E-4,-2.4679631E-3,6.8219117E-4,1.6444756E-3,4.9791695E-3,8.832766E-3,2.785894E-3,1.3194176E-2,9.527308E-3],"categories":[],"categories_nodes":[],"categories_segments":[],"categories_sizes":[],"default_left":[0,0,0,0,0,0,0,0,0,0,0,0,0,0,0,0,0,0,0,0,0,0,0,0,0,0,0,0,0,0,0,0,0,0,0,0,0,0,0,0,0,0,0,0,0,0,0,0,0,0,0,0,0,0,0],"id":15,"left_children":[1,3,5,7,9,11,13,15,-1,17,19,21,23,25,27,-1,29,31,33,35,37,39,41,43,45,47,49,51,53,-1,-1,-1,-1,-1,-1,-1,-1,-1,-1,-1,-1,-1,-1,-1,-1,-1,-1,-1,-1,-1,-1,-1,-1,-1,-1],"loss_changes":[9.086867E1,1.2077419E1,4.6124844E1,1.0475922E-1,1.3868715E1,8.0947895E0,1.284922E1,6.965637E-3,0E0,2.4169197E0,7.3185906E0,9.641247E-1,4.212358E0,1.8348005E0,2.2764282E0,0E0,2.8896332E-2,1.6741562E-1,2.3582544E0,2.0130324E0,3.955207E-1,3.0842304E-1,3.0163246E-1,3.963815E0,2.9993186E0,2.1827647E-1,2.9534817E-1,3.2727413E0,1.1326141E0,0E0,0E0,0E0,0E0,0E0,0E0,0E0,0E0,0E0,0E0,0E0,0E0,0E0,0E0,0E0,0E0,0E0,0E0,0E0,0E0,0E0,0E0,0E0,0E0,0E0,0E0],"parents":[2147483647,0,0,1,1,2,2,3,3,4,4,5,5,6,6,7,7,9,9,10,10,11,11,12,12,13,13,14,14,16,16,17,17,18,18,19,19,20,20,21,21,22,22,23,23,24,24,25,25,26,26,27,27,28,28],"right_children":[2,4,6,8,10,12,14,16,-1,18,20,22,24,26,28,-1,30,32,34,36,38,40,42,44,46,48,50,52,54,-1,-1,-1,-1,-1,-1,-1,-1,-1,-1,-1,-1,-1,-1,-1,-1,-1,-1,-1,-1,-1,-1,-1,-1,-1,-1],"split_conditions":[7.0710677E-1,1.2246469E-16,1.04385E1,5.593557E1,3.0990181E1,-2.617994E1,5E0,4.799356E1,-7.2527677E-3,5E-1,1.2E1,-3.2731426E1,-3.9E0,4E0,2.95785E1,-8.638702E-3,1.4E1,1.8615604E1,2.2933365E1,1.1E1,2.68E1,-2.4492937E-16,4.8585E0,-1.942E0,3.6E0,1.46295E1,1.78345E1,1.6475E1,2.0675E1,-7.189023E-3,-8.444058E-3,-8.207128E-3,-6.810078E-3,-5.130149E-3,2.0983312E-3,4.546404E-3,3.974489E-4,-5.410146E-3,-2.8688551E-3,-4.865648E-3,-7.4715293E-3,-3.8243772E-3,3.0047278E-4,9.310731E-4,8.458822E-3,-5.298358E-3,7.341301E-4,-2.4679631E-3,6.8219117E-4,1.6444756E-3,4.9791695E-3,8.832766E-3,2.785894E-3,1.3194176E-2,9.527308E-3],"split_indices":[5,5,2,7,7,7,3,7,0,5,3,7,1,3,2,0,3,7,7,3,2,6,2,2,2,2,2,1,1,0,0,0,0,0,0,0,0,0,0,0,0,0,0,0,0,0,0,0,0,0,0,0,0,0,0],"split_type":[0,0,0,0,0,0,0,0,0,0,0,0,0,0,0,0,0,0,0,0,0,0,0,0,0,0,0,0,0,0,0,0,0,0,0,0,0,0,0,0,0,0,0,0,0,0,0,0,0,0,0,0,0,0,0],"sum_hessian":[1.2119E4,5.591E3,6.528E3,1.654E3,3.937E3,2.505E3,4.023E3,1.395E3,2.59E2,2.133E3,1.804E3,8.13E2,1.692E3,1.035E3,2.988E3,9.83E2,4.12E2,1.029E3,1.104E3,1.172E3,6.32E2,5.48E2,2.65E2,8.56E2,8.36E2,4.94E2,5.41E2,1.119E3,1.869E3,1.24E2,2.88E2,6.31E2,3.98E2,9.77E2,1.27E2,5.55E2,6.17E2,3.56E2,2.76E2,1.76E2,3.72E2,2.09E2,5.6E1,6.12E2,2.44E2,3.65E2,4.71E2,6.2E1,4.32E2,7.9E1,4.62E2,8.08E2,3.11E2,2.51E2,1.618E3],"tree_param":{"num_deleted":"0","num_feature":"9","num_nodes":"55","size_leaf_vector":"1"}},{"base_weights":[-1.6012794E-4,-9.437541E-2,1.4982307E-1,-1.3476537E-1,-1.5447839E-2,9.3380615E-2,2.0695394E-1,-1.5373486E-1,-1.00097366E-1,-3.9640244E-2,8.05426E-2,7.090746E-2,1.7965925E-1,1.2251477E-1,2.1625957E-1,-1.6088255E-1,-1.3714701E-1,-1.1626327E-1,-6.0061336E-2,2.5273493E-2,-5.8321685E-2,4.4992242E-2,1.2996674E-1,3.1037714E-2,1.3257094E-1,1.4859496E-1,2.2810903E-1,1.03230506E-1,7.472053E-3,2.2952475E-1,1.5201709E-1,-8.243041E-3,-7.709272E-3,-7.3275627E-3,-5.7265814E-3,-3.8211215E-3,-6.2718107E-3,-4.8406934E-3,-1.6523221E-3,-2.8114242E-3,3.1262566E-3,-7.317493E-3,-2.475132E-3,-2.906814E-4,3.6609303E-3,-5.422112E-3,6.812464E-3,-1.8281459E-4,3.3971076E-3,4.9741915E-3,8.965356E-3,4.033104E-3,9.501015E-3,1.0044534E-2,1.3768898E-2,6.510263E-3,4.3058903E-3,1.2238308E-2,1.0261832E-2,6.4896406E-3,1.017804E-2],"categories":[],"categories_nodes":[],"categories_segments":[],"categories_sizes":[],"default_left":[0,0,0,0,0,0,0,0,0,0,0,0,0,0,0,0,0,0,0,0,0,0,0,0,0,0,0,0,0,0,0,0,0,0,0,0,0,0,0,0,0,0,0,0,0,0,0,0,0,0,0,0,0,0,0,0,0,0,0,0,0],"id":16,"left_children":[1,3,5,7,9,11,13,15,17,19,21,23,25,27,29,31,33,35,37,39,41,43,45,47,49,51,53,55,-1,57,59,-1,-1,-1,-1,-1,-1,-1,-1,-1,-1,-1,-1,-1,-1,-1,-1,-1,-1,-1,-1,-1,-1,-1,-1,-1,-1,-1,-1,-1,-1],"loss_changes":[1.7133487E2,2.3738075E1,1.5065384E1,3.224121E0,5.8598814E0,4.5534954E0,1.7996063E0,3.5520935E-1,1.1224117E0,2.445029E0,8.867314E-1,4.593294E0,6.9756126E-1,1.0555911E-1,1.7478867E0,3.3672333E-2,1.8845177E-1,4.4431305E-1,4.9720502E-1,1.3727887E0,1.2077026E0,4.2634302E-1,3.323121E-1,1.4560208E0,1.1171942E0,8.261013E-1,1.8655682E-1,5.295086E-2,0E0,5.909195E-1,3.8711357E-1,0E0,0E0,0E0,0E0,0E0,0E0,0E0,0E0,0E0,0E0,0E0,0E0,0E0,0E0,0E0,0E0,0E0,0E0,0E0,0E0,0E0,0E0,0E0,0E0,0E0,0E0,0E0,0E0,0E0,0E0],"parents":[2147483647,0,0,1,1,2,2,3,3,4,4,5,5,6,6,7,7,8,8,9,9,10,10,11,11,12,12,13,13,14,14,15,15,16,16,17,17,18,18,19,19,20,20,21,21,22,22,23,23,24,24,25,25,26,26,27,27,29,29,30,30],"right_children":[2,4,6,8,10,12,14,16,18,20,22,24,26,28,30,32,34,36,38,40,42,44,46,48,50,52,54,56,-1,58,60,-1,-1,-1,-1,-1,-1,-1,-1,-1,-1,-1,-1,-1,-1,-1,-1,-1,-1,-1,-1,-1,-1,-1,-1,-1,-1,-1,-1,-1,-1],"split_conditions":[3.716E2,1.985E2,5.95575E2,1.021E2,1E1,9E0,5E0,6.005E1,1E1,-4.2E0,2.7645E2,8.660254E-1,1E1,6.854667E2,4.3209343E1,2.65E1,1E1,-3.3E0,1.41575E2,6E0,2E0,1.1E1,-8.9E0,4.867E2,4.97475E2,4.68425E2,4.7725E2,6E0,7.472053E-3,2.6575E1,7.622E2,-8.243041E-3,-7.709272E-3,-7.3275627E-3,-5.7265814E-3,-3.8211215E-3,-6.2718107E-3,-4.8406934E-3,-1.6523221E-3,-2.8114242E-3,3.1262566E-3,-7.317493E-3,-2.475132E-3,-2.906814E-4,3.6609303E-3,-5.422112E-3,6.812464E-3,-1.8281459E-4,3.3971076E-3,4.9741915E-3,8.965356E-3,4.033104E-3,9.501015E-3,1.0044534E-2,1.3768898E-2,6.510263E-3,4.3058903E-3,1.2238308E-2,1.0261832E-2,6.4896406E-3,1.017804E-2],"split_indices":[0,0,0,0,4,4,3,0,4,1,0,6,4,0,7,0,4,2,0,3,3,4,1,0,0,0,0,4,0,1,0,0,0,0,0,0,0,0,0,0,0,0,0,0,0,0,0,0,0,0,0,0,0,0,0,0,0,0,0,0,0],"split_type":[0,0,0,0,0,0,0,0,0,0,0,0,0,0,0,0,0,0,0,0,0,0,0,0,0,0,0,0,0,0,0,0,0,0,0,0,0,0,0,0,0,0,0,0,0,0,0,0,0,0,0,0,0,0,0,0,0,0,0,0,0],"sum_hessian":[1.2123E4,7.446E3,4.677E3,4.925E3,2.521E3,2.354E3,2.323E3,3.181E3,1.744E3,2.014E3,5.07E2,1.869E3,4.85E2,2.32E2,2.091E3,2.217E3,9.64E2,1.241E3,5.03E2,4.5E2,1.564E3,2.96E2,2.11E2,1.136E3,7.33E2,2.98E2,1.87E2,1.38E2,9.4E1,1.731E3,3.6E2,1.376E3,8.41E2,6.77E2,2.87E2,2.34E2,1.007E3,2.12E2,2.91E2,1.41E2,3.09E2,1.41E2,1.423E3,1.06E2,1.9E2,5E0,2.06E2,5.86E2,5.5E2,4.31E2,3.02E2,1.14E2,1.84E2,1.22E2,6.5E1,5.1E1,8.7E1,1.058E3,6.73E2,2.54E2,1.06E2],"tree_param":{"num_deleted":"0","num_feature":"9","num_nodes":"61","size_leaf_vector":"1"}},{"base_weights":[1.9462625E-4,-9.608396E-2,1.3151443E-1,-1.3334988E-1,-3.1619508E-2,6.730323E-2,1.871317E-1,-1.4850596E-1,-1.0633029E-1,-5.3961772E-2,4.7049604E-2,4.140646E-2,1.5156774E-1,9.959904E-2,2.0069842E-1,-1.5387435E-1,-1.3463537E-1,-1.1831128E-1,-7.772632E-2,3.288672E-2,-6.75131E-2,1.1313399E-3,7.9508044E-2,9.798985E-2,1.6598845E-2,1.1579259E-1,1.9440755E-1,4.3767724E-2,1.1962745E-1,2.1506596E-1,1.369312E-1,-8.001364E-3,-7.5224126E-3,-7.1408274E-3,-5.7601165E-3,-4.054289E-3,-6.3315383E-3,5.159098E-3,-4.1334988E-3,3.0335472E-3,-6.3847364E-3,-4.7726175E-3,-2.1782771E-3,1.2725944E-2,-1.6211437E-4,-4.448895E-4,4.690414E-3,-1.8501244E-4,6.0776076E-3,-7.4983574E-4,2.5713115E-3,3.8641968E-3,8.01539E-3,7.184288E-3,1.1234996E-2,3.1035838E-3,1.8372573E-3,5.318632E-3,7.115376E-3,3.6979367E-3,1.0904475E-2,4.880214E-3,8.347337E-3],"categories":[],"categories_nodes":[],"categories_segments":[],"categories_sizes":[],"default_left":[0,0,0,0,0,0,0,0,0,0,0,0,0,0,0,0,0,0,0,0,0,0,0,0,0,0,0,0,0,0,0,0,0,0,0,0,0,0,0,0,0,0,0,0,0,0,0,0,0,0,0,0,0,0,0,0,0,0,0,0,0,0,0],"id":17,"left_children":[1,3,5,7,9,11,13,15,17,19,21,23,25,27,29,31,33,35,37,39,41,43,45,47,49,51,53,55,57,59,61,-1,-1,-1,-1,-1,-1,-1,-1,-1,-1,-1,-1,-1,-1,-1,-1,-1,-1,-1,-1,-1,-1,-1,-1,-1,-1,-1,-1,-1,-1,-1,-1],"loss_changes":[1.5257916E2,1.672319E1,1.8218643E1,1.7909698E0,4.4880524E0,5.1676702E0,3.2279053E0,1.8956375E-1,5.3536034E-1,2.3419223E0,8.4200585E-1,2.5460875E0,8.3114815E-1,4.0738487E-1,2.139145E0,1.8695831E-2,1.1009979E-1,3.3597374E-1,4.306624E-1,1.207926E0,1.1466532E0,2.6125753E-1,4.1929293E-1,1.3254662E0,1.3905647E0,5.121627E-1,3.5490704E-1,1.0444716E-2,6.633043E-2,8.0729675E-1,5.0072956E-1,0E0,0E0,0E0,0E0,0E0,0E0,0E0,0E0,0E0,0E0,0E0,0E0,0E0,0E0,0E0,0E0,0E0,0E0,0E0,0E0,0E0,0E0,0E0,0E0,0E0,0E0,0E0,0E0,0E0,0E0,0E0,0E0],"parents":[2147483647,0,0,1,1,2,2,3,3,4,4,5,5,6,6,7,7,8,8,9,9,10,10,11,11,12,12,13,13,14,14,15,15,16,16,17,17,18,18,19,19,20,20,21,21,22,22,23,23,24,24,25,25,26,26,27,27,28,28,29,29,30,30],"right_children":[2,4,6,8,10,12,14,16,18,20,22,24,26,28,30,32,34,36,38,40,42,44,46,48,50,52,54,56,58,60,62,-1,-1,-1,-1,-1,-1,-1,-1,-1,-1,-1,-1,-1,-1,-1,-1,-1,-1,-1,-1,-1,-1,-1,-1,-1,-1,-1,-1,-1,-1,-1,-1],"split_conditions":[3.374E2,1.70725E2,5.5255E2,8.72E1,1E1,9E0,5E0,5.1625E1,1E1,2E0,2.20725E2,4E0,1E1,4E0,4.3209343E1,1.3075E1,1E1,-3.3E0,-1.835E1,-3.575E0,2.45925E2,-1.835E1,-2.4255E0,-1.365E1,4.436E2,4.68425E2,3.9805E2,6E0,6.916E2,9.97E-1,6.5285E2,-8.001364E-3,-7.5224126E-3,-7.1408274E-3,-5.7601165E-3,-4.054289E-3,-6.3315383E-3,5.159098E-3,-4.1334988E-3,3.0335472E-3,-6.3847364E-3,-4.7726175E-3,-2.1782771E-3,1.2725944E-2,-1.6211437E-4,-4.448895E-4,4.690414E-3,-1.8501244E-4,6.0776076E-3,-7.4983574E-4,2.5713115E-3,3.8641968E-3,8.01539E-3,7.184288E-3,1.1234996E-2,3.1035838E-3,1.8372573E-3,5.318632E-3,7.115376E-3,3.6979367E-3,1.0904475E-2,4.880214E-3,8.347337E-3],"split_indices":[0,0,0,0,4,4,3,0,4,4,0,4,4,3,7,0,4,2,1,1,0,1,2,1,0,0,0,4,0,2,0,0,0,0,0,0,0,0,0,0,0,0,0,0,0,0,0,0,0,0,0,0,0,0,0,0,0,0,0,0,0,0,0],"split_type":[0,0,0,0,0,0,0,0,0,0,0,0,0,0,0,0,0,0,0,0,0,0,0,0,0,0,0,0,0,0,0,0,0,0,0,0,0,0,0,0,0,0,0,0,0,0,0,0,0,0,0,0,0,0,0,0,0,0,0,0,0,0,0],"sum_hessian":[1.2066E4,6.962E3,5.104E3,4.411E3,2.551E3,2.37E3,2.734E3,2.823E3,1.588E3,1.987E3,5.64E2,1.814E3,5.56E2,3.68E2,2.366E3,2.028E3,7.95E2,1.117E3,4.71E2,2.68E2,1.719E3,2.34E2,3.3E2,5.52E2,1.262E3,3.05E2,2.51E2,9.8E1,2.7E2,1.929E3,4.37E2,7.09E2,1.319E3,5.55E2,2.4E2,2.06E2,9.11E2,1.2E1,4.59E2,2.29E2,3.9E1,7.92E2,9.27E2,3E0,2.31E2,4.6E1,2.84E2,1.04E2,4.48E2,6.62E2,6E2,1.65E2,1.4E2,9.6E1,1.55E2,2.5E1,7.3E1,1.74E2,9.6E1,4.1E1,1.888E3,1.91E2,2.46E2],"tree_param":{"num_deleted":"0","num_feature":"9","num_nodes":"63","size_leaf_vector":"1"}},{"base_weights":[-6.9399475E-4,-1.000872E-1,1.1521184E-1,-1.347019E-1,-5.340272E-2,5.5260647E-2,1.7771353E-1,-1.4465418E-1,-1.1822757E-1,-7.8260005E-2,-3.9234706E-3,3.1517405E-2,1.335164E-1,9.507719E-2,1.9042958E-1,-7.4458453E-3,-1.3831836E-1,-7.413593E-3,-1.1278692E-1,-4.9544733E-2,-1.0920037E-1,-4.146108E-2,4.3007974E-2,8.3566435E-2,5.5245403E-3,9.781975E-2,1.7344886E-1,4.1026056E-2,1.139339E-1,2.017179E-1,1.11641355E-1,-7.1230656E-3,-6.5874085E-3,-5.2865217E-3,-6.5516206E-3,-3.998771E-3,-5.310045E-4,-6.884998E-3,-4.976181E-3,-2.90045E-3,-4.940818E-4,5.499897E-4,4.5816274E-3,1.1216429E-3,5.45913E-3,-1.227924E-3,2.389452E-3,3.0514977E-3,7.6287338E-3,6.628836E-3,1.0501175E-2,3.0012352E-3,1.7154964E-3,5.057396E-3,6.8045217E-3,2.9325802E-3,1.0206653E-2,6.5140845E-3,2.737097E-3],"categories":[],"categories_nodes":[],"categories_segments":[],"categories_sizes":[],"default_left":[0,0,0,0,0,0,0,0,0,0,0,0,0,0,0,0,0,0,0,0,0,0,0,0,0,0,0,0,0,0,0,0,0,0,0,0,0,0,0,0,0,0,0,0,0,0,0,0,0,0,0,0,0,0,0,0,0,0,0],"id":18,"left_children":[1,3,5,7,9,11,13,15,17,19,21,23,25,27,29,-1,31,-1,33,35,37,39,41,43,45,47,49,51,53,55,57,-1,-1,-1,-1,-1,-1,-1,-1,-1,-1,-1,-1,-1,-1,-1,-1,-1,-1,-1,-1,-1,-1,-1,-1,-1,-1,-1,-1],"loss_changes":[1.4029364E2,1.0587097E1,2.1056107E1,6.000366E-1,3.4348588E0,5.3302393E0,2.8737183E0,4.265213E-2,2.1588135E-1,1.6462393E0,1.6489673E0,2.9813378E0,9.352379E-1,3.7142015E-1,2.0977783E0,0E0,7.2517395E-3,0E0,1.4180374E-1,1.1433811E0,2.328453E-1,2.7116525E-1,6.4644784E-1,1.1470003E0,1.8714672E0,7.0580816E-1,4.415493E-1,1.0317519E-2,6.357384E-2,7.08107E-1,3.121159E-1,0E0,0E0,0E0,0E0,0E0,0E0,0E0,0E0,0E0,0E0,0E0,0E0,0E0,0E0,0E0,0E0,0E0,0E0,0E0,0E0,0E0,0E0,0E0,0E0,0E0,0E0,0E0,0E0],"parents":[2147483647,0,0,1,1,2,2,3,3,4,4,5,5,6,6,7,7,8,8,9,9,10,10,11,11,12,12,13,13,14,14,16,16,18,18,19,19,20,20,21,21,22,22,23,23,24,24,25,25,26,26,27,27,28,28,29,29,30,30],"right_children":[2,4,6,8,10,12,14,16,18,20,22,24,26,28,30,-1,32,-1,34,36,38,40,42,44,46,48,50,52,54,56,58,-1,-1,-1,-1,-1,-1,-1,-1,-1,-1,-1,-1,-1,-1,-1,-1,-1,-1,-1,-1,-1,-1,-1,-1,-1,-1,-1,-1],"split_conditions":[2.9925E2,1.30475E2,5.5255E2,6.505E1,9E0,9E0,5E0,2.65E1,2E0,5E0,2.11975E2,4E0,1E1,4E0,4.685691E1,-7.4458453E-3,1.1E1,-7.413593E-3,4.3209343E1,2.20725E2,2E0,9E0,1.1E1,-4.2E0,4.436E2,4.68425E2,3.86E2,6E0,6.916E2,9.97E-1,1.1E1,-7.1230656E-3,-6.5874085E-3,-5.2865217E-3,-6.5516206E-3,-3.998771E-3,-5.310045E-4,-6.884998E-3,-4.976181E-3,-2.90045E-3,-4.940818E-4,5.499897E-4,4.5816274E-3,1.1216429E-3,5.45913E-3,-1.227924E-3,2.389452E-3,3.0514977E-3,7.6287338E-3,6.628836E-3,1.0501175E-2,3.0012352E-3,1.7154964E-3,5.057396E-3,6.8045217E-3,2.9325802E-3,1.0206653E-2,6.5140845E-3,2.737097E-3],"split_indices":[0,0,0,0,4,4,3,0,3,4,0,4,4,3,7,0,3,0,7,0,3,3,4,2,0,0,0,4,0,2,3,0,0,0,0,0,0,0,0,0,0,0,0,0,0,0,0,0,0,0,0,0,0,0,0,0,0,0,0],"split_type":[0,0,0,0,0,0,0,0,0,0,0,0,0,0,0,0,0,0,0,0,0,0,0,0,0,0,0,0,0,0,0,0,0,0,0,0,0,0,0,0,0,0,0,0,0,0,0,0,0,0,0,0,0,0,0,0,0,0,0],"sum_hessian":[1.2176E4,6.555E3,5.621E3,3.763E3,2.792E3,2.87E3,2.751E3,2.341E3,1.422E3,1.858E3,9.34E2,2.203E3,6.67E2,3.68E2,2.383E3,1.386E3,9.55E2,2.14E2,1.208E3,9.65E2,8.93E2,5.19E2,4.15E2,7.33E2,1.47E3,3.54E2,3.13E2,9.6E1,2.72E2,2.083E3,3E2,5.73E2,3.82E2,8.76E2,3.32E2,5.41E2,4.24E2,2.23E2,6.7E2,3.4E2,1.79E2,2.51E2,1.64E2,2.17E2,5.16E2,8.59E2,6.11E2,2.13E2,1.41E2,1.5E2,1.63E2,2.3E1,7.3E1,1.76E2,9.6E1,3.5E1,2.048E3,2.25E2,7.5E1],"tree_param":{"num_deleted":"0","num_feature":"9","num_nodes":"59","size_leaf_vector":"1"}},{"base_weights":[-5.7297875E-4,-7.7223554E-2,6.547343E-2,-1.3650559E-1,-5.1888008E-2,-2.5902165E-2,1.1873205E-1,-6.941292E-3,-6.1302227E-3,-9.98205E-2,-4.5728948E-4,-9.444872E-2,7.980551E-3,3.926632E-2,1.4554475E-1,-1.276494E-1,-7.4660175E-2,3.7697893E-2,-7.223712E-2,-1.2943426E-1,-7.707457E-2,5.0373994E-2,-3.806647E-2,2.736807E-3,7.346922E-2,1.7886183E-1,1.2857729E-1,-6.7689284E-3,-5.621832E-3,-4.804253E-3,-5.9585326E-4,3.7540086E-3,2.158144E-4,-5.7302117E-3,-3.0323544E-3,-5.4204385E-3,-6.9486327E-3,-4.5749894E-3,-1.2339152E-3,1.0187159E-3,8.929905E-3,-5.0726864E-3,3.96245E-4,-6.460517E-4,8.338651E-4,1.8584557E-3,4.1770427E-3,9.456736E-3,6.60204E-3,5.0187577E-3,8.428936E-3],"categories":[],"categories_nodes":[],"categories_segments":[],"categories_sizes":[],"default_left":[0,0,0,0,0,0,0,0,0,0,0,0,0,0,0,0,0,0,0,0,0,0,0,0,0,0,0,0,0,0,0,0,0,0,0,0,0,0,0,0,0,0,0,0,0,0,0,0,0,0,0],"id":19,"left_children":[1,3,5,7,9,11,13,-1,-1,15,17,19,21,23,25,27,29,31,33,35,37,39,41,43,45,47,49,-1,-1,-1,-1,-1,-1,-1,-1,-1,-1,-1,-1,-1,-1,-1,-1,-1,-1,-1,-1,-1,-1,-1,-1],"loss_changes":[6.1175186E1,8.393288E0,3.1591772E1,3.697014E-2,9.6635475E0,5.5539546E0,8.73225E0,0E0,0E0,1.4111443E0,5.1844797E0,4.70829E-1,3.1272163E0,1.2941931E0,1.7102356E0,9.789276E-2,1.4345288E0,1.5420561E0,3.1566048E-1,3.72777E-2,3.9908648E-1,3.204493E0,2.239729E0,1.0979107E-1,1.9249177E-1,4.714012E-1,2.2788124E0,0E0,0E0,0E0,0E0,0E0,0E0,0E0,0E0,0E0,0E0,0E0,0E0,0E0,0E0,0E0,0E0,0E0,0E0,0E0,0E0,0E0,0E0,0E0,0E0],"parents":[2147483647,0,0,1,1,2,2,3,3,4,4,5,5,6,6,9,9,10,10,11,11,12,12,13,13,14,14,15,15,16,16,17,17,18,18,19,19,20,20,21,21,22,22,23,23,24,24,25,25,26,26],"right_children":[2,4,6,8,10,12,14,-1,-1,16,18,20,22,24,26,28,30,32,34,36,38,40,42,44,46,48,50,-1,-1,-1,-1,-1,-1,-1,-1,-1,-1,-1,-1,-1,-1,-1,-1,-1,-1,-1,-1,-1,-1,-1,-1],"split_conditions":[7.0710677E-1,1.2246469E-16,9.2915E0,5.593557E1,2.879445E1,-2.617994E1,5E0,-6.941292E-3,-6.1302227E-3,5E-1,1.2E1,-3.8852127E1,-4.2E0,4E0,6E0,1.8615604E1,1.4988045E1,1.1E1,3.9079647E1,-2.4492937E-16,2.65E0,-3.5E-1,3.1605E0,2.61565E1,1.9966667E1,3.3534557E1,3.9527E1,-6.7689284E-3,-5.621832E-3,-4.804253E-3,-5.9585326E-4,3.7540086E-3,2.158144E-4,-5.7302117E-3,-3.0323544E-3,-5.4204385E-3,-6.9486327E-3,-4.5749894E-3,-1.2339152E-3,1.0187159E-3,8.929905E-3,-5.0726864E-3,3.96245E-4,-6.460517E-4,8.338651E-4,1.8584557E-3,4.1770427E-3,9.456736E-3,6.60204E-3,5.0187577E-3,8.428936E-3],"split_indices":[5,5,2,7,7,7,3,0,0,5,3,7,1,3,4,7,7,3,7,6,2,2,2,2,2,7,2,0,0,0,0,0,0,0,0,0,0,0,0,0,0,0,0,0,0,0,0,0,0,0,0],"split_type":[0,0,0,0,0,0,0,0,0,0,0,0,0,0,0,0,0,0,0,0,0,0,0,0,0,0,0,0,0,0,0,0,0,0,0,0,0,0,0,0,0,0,0,0,0,0,0,0,0,0,0],"sum_hessian":[1.2082E4,5.592E3,6.49E3,1.673E3,3.919E3,2.39E3,4.1E3,1.426E3,2.47E2,2.028E3,1.891E3,7.9E2,1.6E3,1.035E3,3.065E3,9.61E2,1.067E3,1.235E3,6.56E2,2.6E2,5.3E2,8.33E2,7.67E2,5.01E2,5.34E2,1.031E3,2.034E3,6.32E2,3.29E2,7.95E2,2.72E2,5.82E2,6.53E2,1.39E2,5.17E2,8.5E1,1.75E2,4.15E2,1.15E2,6.76E2,1.57E2,3.22E2,4.45E2,2.36E2,2.65E2,1.17E2,4.17E2,8.43E2,1.88E2,1.195E3,8.39E2],"tree_param":{"num_deleted":"0","num_feature":"9","num_nodes":"51","size_leaf_vector":"1"}},{"base_weights":[-3.927659E-4,-8.578493E-2,1.1154094E-1,-1.19554564E-1,-3.656674E-2,5.081326E-2,1.5817593E-1,-1.3027008E-1,-1.0134981E-1,-6.064182E-2,1.3831815E-2,2.8523855E-2,1.23733506E-1,8.234271E-2,1.7097677E-1,-1.3437374E-1,-1.2400972E-1,-6.337872E-2,-1.0658779E-1,-8.606346E-4,-8.117641E-2,-3.584222E-2,4.0027667E-2,7.807568E-2,4.6896148E-3,8.625349E-2,1.6456291E-1,3.5332035E-2,1.0467656E-1,1.8413842E-1,1.1229917E-1,-6.9396677E-3,-6.5772133E-3,-6.4404006E-3,-5.80832E-3,-4.048439E-3,-1.2545058E-3,-6.1828634E-3,-4.616312E-3,1.9177767E-3,-2.1199768E-3,-4.8089363E-3,-2.439021E-3,4.6697385E-3,-2.1102903E-3,5.339028E-4,4.250493E-3,-3.0147244E-4,4.9627256E-3,-2.8981797E-3,8.424042E-4,3.0579453E-3,6.343476E-3,3.7559818E-3,8.699971E-3,2.7667987E-3,1.366854E-3,4.7193556E-3,6.3303784E-3,2.1755917E-3,9.358626E-3,4.185117E-3,7.375266E-3],"categories":[],"categories_nodes":[],"categories_segments":[],"categories_sizes":[],"default_left":[0,0,0,0,0,0,0,0,0,0,0,0,0,0,0,0,0,0,0,0,0,0,0,0,0,0,0,0,0,0,0,0,0,0,0,0,0,0,0,0,0,0,0,0,0,0,0,0,0,0,0,0,0,0,0,0,0,0,0,0,0,0,0],"id":20,"left_children":[1,3,5,7,9,11,13,15,17,19,21,23,25,27,29,31,33,35,37,39,41,43,45,47,49,51,53,55,57,59,61,-1,-1,-1,-1,-1,-1,-1,-1,-1,-1,-1,-1,-1,-1,-1,-1,-1,-1,-1,-1,-1,-1,-1,-1,-1,-1,-1,-1,-1,-1,-1,-1],"loss_changes":[1.15760124E2,1.141412E1,1.4834656E1,7.815285E-1,3.3945768E0,3.6990151E0,2.8631592E0,4.9129486E-2,2.9436493E-1,2.3237429E0,1.1790694E0,2.061712E0,8.014488E-1,4.477713E-1,1.937088E0,9.3460083E-4,2.3688316E-2,1.2323928E-1,3.1211185E-1,7.916896E-1,6.8010426E-1,2.613564E-1,7.819767E-1,1.0105667E0,8.998618E-1,2.7762866E-1,2.0131397E-1,2.0877555E-2,5.3716183E-2,8.7464905E-1,4.5782137E-1,0E0,0E0,0E0,0E0,0E0,0E0,0E0,0E0,0E0,0E0,0E0,0E0,0E0,0E0,0E0,0E0,0E0,0E0,0E0,0E0,0E0,0E0,0E0,0E0,0E0,0E0,0E0,0E0,0E0,0E0,0E0,0E0],"parents":[2147483647,0,0,1,1,2,2,3,3,4,4,5,5,6,6,7,7,8,8,9,9,10,10,11,11,12,12,13,13,14,14,15,15,16,16,17,17,18,18,19,19,20,20,21,21,22,22,23,23,24,24,25,25,26,26,27,27,28,28,29,29,30,30],"right_children":[2,4,6,8,10,12,14,16,18,20,22,24,26,28,30,32,34,36,38,40,42,44,46,48,50,52,54,56,58,60,62,-1,-1,-1,-1,-1,-1,-1,-1,-1,-1,-1,-1,-1,-1,-1,-1,-1,-1,-1,-1,-1,-1,-1,-1,-1,-1,-1,-1,-1,-1,-1,-1],"split_conditions":[3.25025E2,1.48725E2,5.325E2,7.4725E1,9E0,9E0,5E0,3.086E1,-3.398518E1,-4.2E0,1.985E2,4E0,1E1,4E0,4.3209343E1,1.11E1,1.1E1,4E0,9E0,2E0,8.660254E-1,-1.365E1,1.1E1,-1.365E1,3E0,4.68425E2,5E0,6E0,6.916E2,-1.265E1,6.7915E2,-6.9396677E-3,-6.5772133E-3,-6.4404006E-3,-5.80832E-3,-4.048439E-3,-1.2545058E-3,-6.1828634E-3,-4.616312E-3,1.9177767E-3,-2.1199768E-3,-4.8089363E-3,-2.439021E-3,4.6697385E-3,-2.1102903E-3,5.339028E-4,4.250493E-3,-3.0147244E-4,4.9627256E-3,-2.8981797E-3,8.424042E-4,3.0579453E-3,6.343476E-3,3.7559818E-3,8.699971E-3,2.7667987E-3,1.366854E-3,4.7193556E-3,6.3303784E-3,2.1755917E-3,9.358626E-3,4.185117E-3,7.375266E-3],"split_indices":[0,0,0,0,4,4,3,0,7,1,0,4,4,3,7,0,3,3,3,4,6,1,4,1,3,0,3,4,0,1,0,0,0,0,0,0,0,0,0,0,0,0,0,0,0,0,0,0,0,0,0,0,0,0,0,0,0,0,0,0,0,0,0],"split_type":[0,0,0,0,0,0,0,0,0,0,0,0,0,0,0,0,0,0,0,0,0,0,0,0,0,0,0,0,0,0,0,0,0,0,0,0,0,0,0,0,0,0,0,0,0,0,0,0,0,0,0,0,0,0,0,0,0,0,0,0,0,0,0],"sum_hessian":[1.2109E4,6.869E3,5.24E3,4.073E3,2.796E3,2.277E3,2.963E3,2.56E3,1.513E3,1.892E3,9.04E2,1.745E3,5.32E2,4.29E2,2.534E3,1.534E3,1.026E3,1.85E2,1.328E3,4.84E2,1.408E3,3.12E2,5.92E2,5.66E2,1.179E3,2.79E2,2.53E2,1.39E2,2.9E2,2.068E3,4.66E2,5.8E2,9.54E2,6.27E2,3.99E2,1.26E2,5.9E1,6.01E2,7.27E2,2.49E2,2.35E2,9.61E2,4.47E2,1.4E1,2.98E2,3.59E2,2.33E2,1.14E2,4.52E2,1.91E2,9.88E2,1.74E2,1.05E2,2.5E1,2.28E2,3.8E1,1.01E2,2.01E2,8.9E1,4.4E1,2.024E3,2.59E2,2.07E2],"tree_param":{"num_deleted":"0","num_feature":"9","num_nodes":"63","size_leaf_vector":"1"}},{"base_weights":[6.4575365E-6,-9.000665E-2,9.5715426E-2,-1.1629907E-1,-5.079458E-2,3.4224488E-2,1.4316592E-1,-1.2509489E-1,-1.02700405E-1,-6.853472E-2,1.3080477E-3,1.956323E-2,1.2745933E-1,1.11610554E-1,1.7517245E-1,-6.446091E-3,-1.2079068E-1,-1.0990766E-1,-8.539558E-2,-3.2834668E-2,-7.994057E-2,-2.9406609E-2,3.526218E-2,6.409326E-2,-2.8275835E-4,-1.112163E-1,1.3341987E-1,9.760513E-2,2.0245846E-1,1.5779321E-1,1.9819427E-1,-6.2539317E-3,-5.735842E-3,-4.1813483E-3,-5.7615866E-3,-5.1455433E-3,-2.293673E-3,-3.6236295E-3,1.4055558E-4,-5.9810933E-3,-3.6306903E-3,6.522751E-4,-2.8365736E-3,5.3742644E-4,3.7070364E-3,3.4069577E-5,3.756725E-3,-6.990712E-4,2.9523645E-3,-7.4359286E-3,6.6805485E-4,5.2961055E-3,8.409558E-3,3.8511113E-3,9.502637E-3,1.5267388E-4,1.089657E-2,1.02465525E-2,7.13365E-3,1.0264481E-2,7.949203E-3],"categories":[],"categories_nodes":[],"categories_segments":[],"categories_sizes":[],"default_left":[0,0,0,0,0,0,0,0,0,0,0,0,0,0,0,0,0,0,0,0,0,0,0,0,0,0,0,0,0,0,0,0,0,0,0,0,0,0,0,0,0,0,0,0,0,0,0,0,0,0,0,0,0,0,0,0,0,0,0,0,0],"id":21,"left_children":[1,3,5,7,9,11,13,15,17,19,21,23,25,27,29,-1,31,33,35,37,39,41,43,45,47,49,51,53,55,57,59,-1,-1,-1,-1,-1,-1,-1,-1,-1,-1,-1,-1,-1,-1,-1,-1,-1,-1,-1,-1,-1,-1,-1,-1,-1,-1,-1,-1,-1,-1],"loss_changes":[1.042164E2,6.4212227E0,1.7102016E1,4.334259E-1,2.314557E0,3.4900386E0,3.322464E0,2.1671295E-2,1.7407703E-1,7.5800514E-1,6.6535753E-1,1.9522054E0,5.0849247E-1,2.1038132E0,6.2529755E-1,0E0,1.37786865E-2,1.3518143E-1,2.9778838E-1,6.4167154E-1,4.027052E-1,3.8933948E-1,2.879788E-1,4.76748E-1,1.2435089E0,4.403445E-2,3.06314E-1,2.740675E0,6.84289E-1,6.407299E-1,1.6266632E-1,0E0,0E0,0E0,0E0,0E0,0E0,0E0,0E0,0E0,0E0,0E0,0E0,0E0,0E0,0E0,0E0,0E0,0E0,0E0,0E0,0E0,0E0,0E0,0E0,0E0,0E0,0E0,0E0,0E0,0E0],"parents":[2147483647,0,0,1,1,2,2,3,3,4,4,5,5,6,6,7,7,8,8,9,9,10,10,11,11,12,12,13,13,14,14,16,16,17,17,18,18,19,19,20,20,21,21,22,22,23,23,24,24,25,25,26,26,27,27,28,28,29,29,30,30],"right_children":[2,4,6,8,10,12,14,16,18,20,22,24,26,28,30,-1,32,34,36,38,40,42,44,46,48,50,52,54,56,58,60,-1,-1,-1,-1,-1,-1,-1,-1,-1,-1,-1,-1,-1,-1,-1,-1,-1,-1,-1,-1,-1,-1,-1,-1,-1,-1,-1,-1,-1,-1],"split_conditions":[2.80225E2,1.30475E2,4.97475E2,6.2175E1,1E1,1E1,6.733E2,2.1525E1,1E1,-3.125E0,1.985E2,4E0,-8.9E0,1E0,8.055E2,-6.446091E-3,1.1E1,-4.7E0,1E1,7E0,2E0,8.660254E-1,8.027305E-1,-8.664E0,9E0,8E0,3.716E2,9E0,-6.8E0,5E0,3.2425E1,-6.2539317E-3,-5.735842E-3,-4.1813483E-3,-5.7615866E-3,-5.1455433E-3,-2.293673E-3,-3.6236295E-3,1.4055558E-4,-5.9810933E-3,-3.6306903E-3,6.522751E-4,-2.8365736E-3,5.3742644E-4,3.7070364E-3,3.4069577E-5,3.756725E-3,-6.990712E-4,2.9523645E-3,-7.4359286E-3,6.6805485E-4,5.2961055E-3,8.409558E-3,3.8511113E-3,9.502637E-3,1.5267388E-4,1.089657E-2,1.02465525E-2,7.13365E-3,1.0264481E-2,7.949203E-3],"split_indices":[0,0,0,0,4,4,0,0,4,1,0,4,1,6,0,0,3,1,3,3,3,5,7,2,4,3,0,4,1,4,1,0,0,0,0,0,0,0,0,0,0,0,0,0,0,0,0,0,0,0,0,0,0,0,0,0,0,0,0,0,0],"split_type":[0,0,0,0,0,0,0,0,0,0,0,0,0,0,0,0,0,0,0,0,0,0,0,0,0,0,0,0,0,0,0,0,0,0,0,0,0,0,0,0,0,0,0,0,0,0,0,0,0,0,0,0,0,0,0,0,0,0,0,0,0],"sum_hessian":[1.2095E4,6.233E3,5.862E3,3.73E3,2.503E3,2.554E3,3.308E3,2.26E3,1.47E3,1.867E3,6.36E2,2.208E3,3.46E2,1.668E3,1.64E3,1.181E3,1.079E3,1.034E3,4.36E2,4.53E2,1.414E3,3.34E2,3.02E2,6.8E2,1.528E3,8E0,3.38E2,1.447E3,2.21E2,9.39E2,7.01E2,6.21E2,4.58E2,1.77E2,8.57E2,3.01E2,1.35E2,2.14E2,2.39E2,2.18E2,1.196E3,1.31E2,2.03E2,1.86E2,1.16E2,1.01E2,5.79E2,1.242E3,2.86E2,6E0,2E0,1.91E2,1.47E2,1.185E3,2.62E2,1.6E1,2.05E2,2.25E2,7.14E2,5.9E2,1.11E2],"tree_param":{"num_deleted":"0","num_feature":"9","num_nodes":"61","size_leaf_vector":"1"}},{"base_weights":[5.7098595E-4,-8.5006215E-2,9.184742E-2,-1.0839262E-1,-4.4231806E-2,3.1157361E-2,1.3797271E-1,-1.1837707E-1,-9.353481E-2,-5.8540326E-2,2.899314E-2,1.584642E-2,1.273647E-1,1.0203658E-1,1.6373666E-1,-6.227094E-3,-1.1565819E-1,-1.02677494E-1,-7.792146E-2,-5.6463424E-3,-5.1671706E-2,-1.8334914E-3,8.255936E-2,-5.9816487E-2,2.5165558E-2,-5.2380688E-3,1.3104315E-1,8.7686986E-2,1.9071482E-1,1.82791E-1,1.4124973E-1,-5.4348866E-3,-5.864102E-3,-4.0286225E-3,-5.525103E-3,-3.414084E-3,-5.6745214E-3,-3.4827818E-3,-1.2056092E-3,-1.3453795E-3,4.0292786E-3,5.4203515E-4,6.999019E-3,-3.3374464E-3,-2.3389028E-3,1.7139355E-3,-1.9290218E-3,5.5261143E-3,8.261806E-3,3.2647531E-3,8.740234E-3,2.6543417E-3,1.0491619E-2,7.1474253E-3,9.854676E-3,5.7018353E-3,8.4378775E-3],"categories":[],"categories_nodes":[],"categories_segments":[],"categories_sizes":[],"default_left":[0,0,0,0,0,0,0,0,0,0,0,0,0,0,0,0,0,0,0,0,0,0,0,0,0,0,0,0,0,0,0,0,0,0,0,0,0,0,0,0,0,0,0,0,0,0,0,0,0,0,0,0,0,0,0,0,0],"id":22,"left_children":[1,3,5,7,9,11,13,15,17,19,21,23,25,27,29,-1,31,33,35,-1,37,39,41,43,45,-1,47,49,51,53,55,-1,-1,-1,-1,-1,-1,-1,-1,-1,-1,-1,-1,-1,-1,-1,-1,-1,-1,-1,-1,-1,-1,-1,-1,-1,-1],"loss_changes":[9.50152E1,5.981701E0,1.6472652E1,5.8068466E-1,2.4010234E0,3.7438834E0,3.0793571E0,2.5520325E-2,2.2153759E-1,7.099061E-1,6.193762E-1,1.5492284E0,3.11728E-1,1.7635012E0,8.079872E-1,0E0,6.095886E-3,1.6596031E-1,1.972909E-1,0E0,8.4237576E-1,4.9608186E-1,5.6267023E-1,1.8661201E-2,1.1370348E0,0E0,2.231121E-1,2.3411694E0,4.992962E-1,5.7016754E-1,6.522236E-1,0E0,0E0,0E0,0E0,0E0,0E0,0E0,0E0,0E0,0E0,0E0,0E0,0E0,0E0,0E0,0E0,0E0,0E0,0E0,0E0,0E0,0E0,0E0,0E0,0E0,0E0],"parents":[2147483647,0,0,1,1,2,2,3,3,4,4,5,5,6,6,7,7,8,8,9,9,10,10,11,11,12,12,13,13,14,14,16,16,17,17,18,18,20,20,21,21,22,22,23,23,24,24,26,26,27,27,28,28,29,29,30,30],"right_children":[2,4,6,8,10,12,14,16,18,20,22,24,26,28,30,-1,32,34,36,-1,38,40,42,44,46,-1,48,50,52,54,56,-1,-1,-1,-1,-1,-1,-1,-1,-1,-1,-1,-1,-1,-1,-1,-1,-1,-1,-1,-1,-1,-1,-1,-1,-1,-1],"split_conditions":[2.80225E2,1.44025E2,4.97475E2,6.725E1,1.1E1,1E1,6.4015E2,1.3075E1,9E0,2E0,2.11975E2,3E0,-1.5925E1,1E0,2.645E1,-6.227094E-3,-4.9766665E0,-1.975E0,9.659258E-1,-5.6463424E-3,2.26175E2,8.144248E0,-1.75E0,3.9805E2,1.2E1,-5.2380688E-3,3.9805E2,9E0,4.8585E0,6E0,7.85975E2,-5.4348866E-3,-5.864102E-3,-4.0286225E-3,-5.525103E-3,-3.414084E-3,-5.6745214E-3,-3.4827818E-3,-1.2056092E-3,-1.3453795E-3,4.0292786E-3,5.4203515E-4,6.999019E-3,-3.3374464E-3,-2.3389028E-3,1.7139355E-3,-1.9290218E-3,5.5261143E-3,8.261806E-3,3.2647531E-3,8.740234E-3,2.6543417E-3,1.0491619E-2,7.1474253E-3,9.854676E-3,5.7018353E-3,8.4378775E-3],"split_indices":[0,0,0,0,4,4,0,0,4,3,0,3,1,6,1,0,2,1,5,0,0,7,1,0,3,0,0,4,2,3,0,0,0,0,0,0,0,0,0,0,0,0,0,0,0,0,0,0,0,0,0,0,0,0,0,0,0],"split_type":[0,0,0,0,0,0,0,0,0,0,0,0,0,0,0,0,0,0,0,0,0,0,0,0,0,0,0,0,0,0,0,0,0,0,0,0,0,0,0,0,0,0,0,0,0,0,0,0,0,0,0,0,0,0,0,0,0],"sum_hessian":[1.2162E4,6.277E3,5.885E3,3.988E3,2.289E3,2.542E3,3.343E3,2.381E3,1.607E3,1.915E3,3.74E2,2.194E3,3.48E2,1.398E3,1.945E3,7.15E2,1.666E3,1.01E3,5.97E2,2.13E2,1.702E3,2.38E2,1.36E2,2.4E2,1.954E3,5E0,3.43E2,1.205E3,1.93E2,1.049E3,8.96E2,3.28E2,1.338E3,2.67E2,7.43E2,4.72E2,1.25E2,1.029E3,6.73E2,1.83E2,5.5E1,6.1E1,7.5E1,1.54E2,8.6E1,1.71E3,2.44E2,2.17E2,1.26E2,9.6E2,2.45E2,2.4E1,1.69E2,2.8E2,7.69E2,4.53E2,4.43E2],"tree_param":{"num_deleted":"0","num_feature":"9","num_nodes":"57","size_leaf_vector":"1"}},{"base_weights":[1.5386102E-4,-6.735471E-2,1.0474596E-1,-9.557153E-2,-1.0824619E-2,6.92558E-2,1.5198581E-1,-1.0797844E-1,-7.0962965E-2,-2.7462292E-2,5.6604195E-2,5.292006E-2,1.3138251E-1,1.3620554E-1,1.780329E-1,-1.13565E-1,-9.811578E-2,-8.1980854E-2,-4.4015154E-2,4.966272E-2,-3.8656358E-2,3.0533051E-2,9.5023066E-2,2.223339E-2,1.0067302E-1,9.986571E-2,1.5888947E-1,1.8037207E-1,1.2012816E-1,1.8555728E-1,1.3834122E-1,-5.9609986E-3,-5.5671614E-3,-5.2432786E-3,-4.0926253E-3,-2.6472304E-3,-4.4231187E-3,-3.1288085E-3,-3.0163108E-4,-9.894654E-4,5.5949274E-3,-1.6222884E-3,-5.656293E-3,2.6386667E-3,-7.59612E-4,-5.277E-3,5.150487E-3,3.1186166E-4,3.3972617E-3,3.4299456E-3,6.8923878E-3,3.1536128E-3,6.809247E-3,7.1427017E-3,1.0429868E-2,1.8721287E-3,9.462181E-3,5.0858497E-3,7.963291E-3,7.241396E-3,9.588837E-3,6.11084E-3,7.47474E-3],"categories":[],"categories_nodes":[],"categories_segments":[],"categories_sizes":[],"default_left":[0,0,0,0,0,0,0,0,0,0,0,0,0,0,0,0,0,0,0,0,0,0,0,0,0,0,0,0,0,0,0,0,0,0,0,0,0,0,0,0,0,0,0,0,0,0,0,0,0,0,0,0,0,0,0,0,0,0,0,0,0,0,0],"id":23,"left_children":[1,3,5,7,9,11,13,15,17,19,21,23,25,27,29,31,33,35,37,39,41,43,45,47,49,51,53,55,57,59,61,-1,-1,-1,-1,-1,-1,-1,-1,-1,-1,-1,-1,-1,-1,-1,-1,-1,-1,-1,-1,-1,-1,-1,-1,-1,-1,-1,-1,-1,-1,-1,-1],"loss_changes":[8.559177E1,1.1750065E1,7.9614677E0,1.4926605E0,2.7545958E0,2.750493E0,8.138466E-1,1.6875458E-1,4.8628902E-1,1.701841E0,4.838879E-1,3.1527238E0,4.7394848E-1,8.8297653E-1,2.030983E-1,1.2832642E-2,1.2182808E-1,2.1550941E-1,3.3872473E-1,1.0828154E0,7.918291E-1,2.9673222E-1,3.2483053E-1,9.5892876E-1,9.944992E-1,3.46869E-1,2.0932722E-1,4.2149925E-1,6.589737E-1,1.3459969E-1,4.389763E-3,0E0,0E0,0E0,0E0,0E0,0E0,0E0,0E0,0E0,0E0,0E0,0E0,0E0,0E0,0E0,0E0,0E0,0E0,0E0,0E0,0E0,0E0,0E0,0E0,0E0,0E0,0E0,0E0,0E0,0E0,0E0,0E0],"parents":[2147483647,0,0,1,1,2,2,3,3,4,4,5,5,6,6,7,7,8,8,9,9,10,10,11,11,12,12,13,13,14,14,15,15,16,16,17,17,18,18,19,19,20,20,21,21,22,22,23,23,24,24,25,25,26,26,27,27,28,28,29,29,30,30],"right_children":[2,4,6,8,10,12,14,16,18,20,22,24,26,28,30,32,34,36,38,40,42,44,46,48,50,52,54,56,58,60,62,-1,-1,-1,-1,-1,-1,-1,-1,-1,-1,-1,-1,-1,-1,-1,-1,-1,-1,-1,-1,-1,-1,-1,-1,-1,-1,-1,-1,-1,-1,-1,-1],"split_conditions":[3.6765E2,1.985E2,6.2855E2,1.0635E2,1E1,9E0,7.985E2,5.3625E1,1E1,2E0,2.7645E2,8.660254E-1,4.73025E2,5E0,3.2425E1,1.11E1,1E1,-3.3E0,8.144248E0,-7.543E0,1.3E1,6.975E0,-8.9E0,8E0,4.97475E2,1E1,1E1,-1.365E1,8E0,6E0,8.51575E2,-5.9609986E-3,-5.5671614E-3,-5.2432786E-3,-4.0926253E-3,-2.6472304E-3,-4.4231187E-3,-3.1288085E-3,-3.0163108E-4,-9.894654E-4,5.5949274E-3,-1.6222884E-3,-5.656293E-3,2.6386667E-3,-7.59612E-4,-5.277E-3,5.150487E-3,3.1186166E-4,3.3972617E-3,3.4299456E-3,6.8923878E-3,3.1536128E-3,6.809247E-3,7.1427017E-3,1.0429868E-2,1.8721287E-3,9.462181E-3,5.0858497E-3,7.963291E-3,7.241396E-3,9.588837E-3,6.11084E-3,7.47474E-3],"split_indices":[0,0,0,0,4,4,0,0,4,4,0,6,0,4,1,0,4,2,7,2,3,1,1,4,0,4,4,1,4,3,0,0,0,0,0,0,0,0,0,0,0,0,0,0,0,0,0,0,0,0,0,0,0,0,0,0,0,0,0,0,0,0,0],"split_type":[0,0,0,0,0,0,0,0,0,0,0,0,0,0,0,0,0,0,0,0,0,0,0,0,0,0,0,0,0,0,0,0,0,0,0,0,0,0,0,0,0,0,0,0,0,0,0,0,0,0,0,0,0,0,0,0,0,0,0,0,0,0,0],"sum_hessian":[1.212E4,7.366E3,4.754E3,4.913E3,2.453E3,2.716E3,2.038E3,3.264E3,1.649E3,1.968E3,4.85E2,2.152E3,5.64E2,1.273E3,7.65E2,2.077E3,1.187E3,1.169E3,4.8E2,2.49E2,1.719E3,2.9E2,1.95E2,1.311E3,8.41E2,2.65E2,2.99E2,3.37E2,9.36E2,6.4E2,1.25E2,5.71E2,1.506E3,8.35E2,3.52E2,2.15E2,9.54E2,3.22E2,1.58E2,1.18E2,1.31E2,1.588E3,1.31E2,1.95E2,9.5E1,7E0,1.88E2,9.72E2,3.39E2,4.53E2,3.88E2,1.33E2,1.32E2,2.29E2,7E1,2E1,3.17E2,6.39E2,2.97E2,8.8E1,5.52E2,5.6E1,6.9E1],"tree_param":{"num_deleted":"0","num_feature":"9","num_nodes":"63","size_leaf_vector":"1"}},{"base_weights":[5.755998E-4,-7.413154E-2,8.73369E-2,-9.583587E-2,-3.3498824E-2,3.4106646E-2,1.2686077E-1,-1.0422016E-1,-7.616878E-2,-5.4147698E-2,8.981863E-3,2.0645007E-2,1.2945081E-1,6.301031E-2,1.3809726E-1,-1.089162E-1,-9.7480305E-2,-5.8394004E-2,-8.795772E-2,-2.7828E-2,-8.254228E-2,2.3507574E-1,5.8935354E-3,-5.4307185E-2,2.9271657E-2,1.0630114E-1,1.5664443E-1,2.5068812E-2,8.237699E-2,1.4708528E-1,8.275987E-2,-5.654713E-3,-5.3373184E-3,-5.2018478E-3,-4.4687088E-3,-3.501394E-3,-1.0562978E-3,-4.9556624E-3,-3.3227194E-3,-2.7277835E-3,-1.2985014E-4,-5.272742E-3,-3.7094404E-3,1.4225401E-2,-5.2453703E-3,-7.8503526E-4,2.0621812E-3,-2.2781137E-3,-3.3304342E-3,2.1953783E-3,-7.463191E-5,-3.7601783E-3,5.5087185E-3,9.436783E-3,5.8741164E-3,2.2474646E-3,8.264268E-4,5.0186585E-3,3.5895973E-3,-6.542815E-4,7.514094E-3,5.0680223E-3,1.8257991E-3],"categories":[],"categories_nodes":[],"categories_segments":[],"categories_sizes":[],"default_left":[0,0,0,0,0,0,0,0,0,0,0,0,0,0,0,0,0,0,0,0,0,0,0,0,0,0,0,0,0,0,0,0,0,0,0,0,0,0,0,0,0,0,0,0,0,0,0,0,0,0,0,0,0,0,0,0,0,0,0,0,0,0,0],"id":24,"left_children":[1,3,5,7,9,11,13,15,17,19,21,23,25,27,29,31,33,35,37,39,41,43,45,47,49,51,53,55,57,59,61,-1,-1,-1,-1,-1,-1,-1,-1,-1,-1,-1,-1,-1,-1,-1,-1,-1,-1,-1,-1,-1,-1,-1,-1,-1,-1,-1,-1,-1,-1,-1,-1],"loss_changes":[7.8661766E1,5.747696E0,1.1808876E1,6.928673E-1,1.9934356E0,3.0699992E0,2.3029404E0,8.3602905E-2,2.6182508E-1,1.1403809E0,5.1811403E-1,1.3587742E0,1.6968775E-1,3.5357857E-1,1.350132E0,3.7574768E-3,5.6181908E-2,2.2007585E-1,1.7668247E-1,5.359791E-1,1.3285494E-1,1.9790846E-1,5.617159E-1,2.0309031E-2,8.479117E-1,1.2287629E-1,1.462326E-1,2.7271539E-2,5.3750753E-2,1.2077332E0,3.2746124E-1,0E0,0E0,0E0,0E0,0E0,0E0,0E0,0E0,0E0,0E0,0E0,0E0,0E0,0E0,0E0,0E0,0E0,0E0,0E0,0E0,0E0,0E0,0E0,0E0,0E0,0E0,0E0,0E0,0E0,0E0,0E0,0E0],"parents":[2147483647,0,0,1,1,2,2,3,3,4,4,5,5,6,6,7,7,8,8,9,9,10,10,11,11,12,12,13,13,14,14,15,15,16,16,17,17,18,18,19,19,20,20,21,21,22,22,23,23,24,24,25,25,26,26,27,27,28,28,29,29,30,30],"right_children":[2,4,6,8,10,12,14,16,18,20,22,24,26,28,30,32,34,36,38,40,42,44,46,48,50,52,54,56,58,60,62,-1,-1,-1,-1,-1,-1,-1,-1,-1,-1,-1,-1,-1,-1,-1,-1,-1,-1,-1,-1,-1,-1,-1,-1,-1,-1,-1,-1,-1,-1,-1,-1],"split_conditions":[2.9925E2,1.5965E2,5.11225E2,9.3775E1,9E0,1E1,5E0,3.8625E1,2.575E0,5E0,-1.835E1,3E0,3.9805E2,4E0,1E1,1.11E1,1E1,1E1,9E0,2.26175E2,1.2246469E-16,2.34275E2,2.371E2,7E0,2.34E1,-1.5925E1,1.2875E1,6E0,6E0,-1.365E1,1.1E1,-5.654713E-3,-5.3373184E-3,-5.2018478E-3,-4.4687088E-3,-3.501394E-3,-1.0562978E-3,-4.9556624E-3,-3.3227194E-3,-2.7277835E-3,-1.2985014E-4,-5.272742E-3,-3.7094404E-3,1.4225401E-2,-5.2453703E-3,-7.8503526E-4,2.0621812E-3,-2.2781137E-3,-3.3304342E-3,2.1953783E-3,-7.463191E-5,-3.7601783E-3,5.5087185E-3,9.436783E-3,5.8741164E-3,2.2474646E-3,8.264268E-4,5.0186585E-3,3.5895973E-3,-6.542815E-4,7.514094E-3,5.0680223E-3,1.8257991E-3],"split_indices":[0,0,0,0,4,4,3,0,1,4,1,3,0,3,3,0,3,3,4,0,5,0,0,4,1,1,1,4,4,1,3,0,0,0,0,0,0,0,0,0,0,0,0,0,0,0,0,0,0,0,0,0,0,0,0,0,0,0,0,0,0,0,0],"split_type":[0,0,0,0,0,0,0,0,0,0,0,0,0,0,0,0,0,0,0,0,0,0,0,0,0,0,0,0,0,0,0,0,0,0,0,0,0,0,0,0,0,0,0,0,0,0,0,0,0,0,0,0,0,0,0,0,0,0,0,0,0,0,0],"sum_hessian":[1.2134E4,6.52E3,5.614E3,4.249E3,2.271E3,2.393E3,3.221E3,2.976E3,1.273E3,1.528E3,7.43E2,2.098E3,2.95E2,4.83E2,2.738E3,1.745E3,1.231E3,5.1E2,7.63E2,7.94E2,7.34E2,9E0,7.34E2,2.16E2,1.882E3,1.62E2,1.33E2,1.64E2,3.19E2,2.354E3,3.84E2,5.79E2,1.166E3,6.74E2,5.57E2,3.88E2,1.22E2,5E2,2.63E2,3.85E2,4.09E2,1.93E2,5.41E2,8E0,1E0,4.56E2,2.78E2,1.29E2,8.7E1,1.275E3,6.07E2,3E0,1.59E2,7.1E1,6.2E1,4.8E1,1.16E2,1.15E2,2.04E2,4.6E1,2.308E3,2.73E2,1.11E2],"tree_param":{"num_deleted":"0","num_feature":"9","num_nodes":"63","size_leaf_vector":"1"}},{"base_weights":[8.949514E-5,-5.5883892E-2,4.7802255E-2,-1.0175521E-1,-3.6490012E-2,-1.8415924E-2,8.716268E-2,-9.8428644E-2,-5.302512E-3,-7.4728794E-2,4.8822996E-5,-6.7894E-2,5.3723925E-3,2.6523763E-2,1.0815739E-1,-1.0444761E-1,-4.6319137E-3,-9.5961906E-2,-5.6240056E-2,3.1231973E-2,-5.629055E-2,-7.763993E-2,-2.5380364E-2,3.8383916E-2,-3.0012753E-2,-5.2689394E-4,5.1080648E-2,1.3574232E-1,9.4284385E-2,-3.8847157E-3,-5.274832E-3,-5.0874385E-3,-4.1335723E-3,-3.6022668E-3,-2.8135662E-4,2.915114E-3,3.2791012E-4,-4.4104024E-3,-2.2602803E-3,-5.082308E-3,-3.4738556E-3,2.122549E-3,-2.6201247E-3,7.08208E-4,5.7623917E-3,-3.6468122E-3,3.575335E-4,7.2758645E-5,-2.5547014E-3,1.1622459E-3,2.953611E-3,8.712974E-3,6.2562437E-3,3.0725135E-3,5.5093686E-3],"categories":[],"categories_nodes":[],"categories_segments":[],"categories_sizes":[],"default_left":[0,0,0,0,0,0,0,0,0,0,0,0,0,0,0,0,0,0,0,0,0,0,0,0,0,0,0,0,0,0,0,0,0,0,0,0,0,0,0,0,0,0,0,0,0,0,0,0,0,0,0,0,0,0,0],"id":25,"left_children":[1,3,5,7,9,11,13,15,-1,17,19,21,23,25,27,29,-1,31,33,35,37,39,41,43,45,47,49,51,53,-1,-1,-1,-1,-1,-1,-1,-1,-1,-1,-1,-1,-1,-1,-1,-1,-1,-1,-1,-1,-1,-1,-1,-1,-1,-1],"loss_changes":[3.2314804E1,4.949705E0,1.7026451E1,1.31931305E-2,5.4700446E0,2.8675365E0,5.213005E0,2.3294449E-2,0E0,7.455969E-1,3.5207067E0,3.2576823E-1,1.9238735E0,7.008421E-1,1.1517181E0,4.600525E-3,0E0,5.996132E-2,8.195448E-1,8.612429E-1,2.4862838E-1,1.1893916E-1,2.7533364E-1,1.5844723E0,1.2686927E0,5.048875E-2,1.2164235E-1,3.9369392E-1,1.0521698E0,0E0,0E0,0E0,0E0,0E0,0E0,0E0,0E0,0E0,0E0,0E0,0E0,0E0,0E0,0E0,0E0,0E0,0E0,0E0,0E0,0E0,0E0,0E0,0E0,0E0,0E0],"parents":[2147483647,0,0,1,1,2,2,3,3,4,4,5,5,6,6,7,7,9,9,10,10,11,11,12,12,13,13,14,14,15,15,17,17,18,18,19,19,20,20,21,21,22,22,23,23,24,24,25,25,26,26,27,27,28,28],"right_children":[2,4,6,8,10,12,14,16,-1,18,20,22,24,26,28,30,-1,32,34,36,38,40,42,44,46,48,50,52,54,-1,-1,-1,-1,-1,-1,-1,-1,-1,-1,-1,-1,-1,-1,-1,-1,-1,-1,-1,-1,-1,-1,-1,-1,-1,-1],"split_conditions":[7.0710677E-1,1.2246469E-16,9.2915E0,1.4E1,2.6904411E1,-2.617994E1,5E0,3.9668716E1,-5.302512E-3,5E-1,1.2E1,2.65E0,-4.2E0,4E0,6E0,-3.0990181E1,-4.6319137E-3,1.8615604E1,1.4988045E1,1.1E1,3.9079647E1,-4.262239E1,2.35E0,-1.5E0,3.6E0,1E1,1.9966667E1,4E0,2.92305E1,-3.8847157E-3,-5.274832E-3,-5.0874385E-3,-4.1335723E-3,-3.6022668E-3,-2.8135662E-4,2.915114E-3,3.2791012E-4,-4.4104024E-3,-2.2602803E-3,-5.082308E-3,-3.4738556E-3,2.122549E-3,-2.6201247E-3,7.08208E-4,5.7623917E-3,-3.6468122E-3,3.575335E-4,7.2758645E-5,-2.5547014E-3,1.1622459E-3,2.953611E-3,8.712974E-3,6.2562437E-3,3.0725135E-3,5.5093686E-3],"split_indices":[5,5,2,3,7,7,3,7,0,5,3,2,1,3,4,7,0,7,7,3,7,7,1,2,2,4,2,4,2,0,0,0,0,0,0,0,0,0,0,0,0,0,0,0,0,0,0,0,0,0,0,0,0,0,0],"split_type":[0,0,0,0,0,0,0,0,0,0,0,0,0,0,0,0,0,0,0,0,0,0,0,0,0,0,0,0,0,0,0,0,0,0,0,0,0,0,0,0,0,0,0,0,0,0,0,0,0,0,0,0,0,0,0],"sum_hessian":[1.2098E4,5.567E3,6.531E3,1.653E3,3.914E3,2.435E3,4.096E3,9.45E2,7.08E2,1.912E3,2.002E3,7.9E2,1.645E3,1.054E3,3.042E3,4.55E2,4.9E2,8.88E2,1.024E3,1.289E3,7.13E2,6.42E2,1.48E2,8.51E2,7.94E2,5.02E2,5.52E2,1.015E3,2.027E3,2E1,4.35E2,6.14E2,2.74E2,7.8E2,2.44E2,6.14E2,6.75E2,1.82E2,5.31E2,1.6E2,4.82E2,4.2E1,1.06E2,6.48E2,2.03E2,3.68E2,4.26E2,4.84E2,1.8E1,1.24E2,4.28E2,2.16E2,7.99E2,6.63E2,1.364E3],"tree_param":{"num_deleted":"0","num_feature":"9","num_nodes":"55","size_leaf_vector":"1"}},{"base_weights":[-3.9654775E-4,-5.7251215E-2,9.39459E-2,-8.462381E-2,-1.1786437E-2,6.508655E-2,1.347484E-1,-9.483251E-2,-6.7056105E-2,-2.6510594E-2,4.8905708E-2,5.051358E-2,1.2366699E-1,1.2140071E-1,1.5740128E-1,-9.864114E-2,-8.904982E-2,-7.554559E-2,-4.6716E-2,2.5065478E-2,-4.055687E-2,1.086305E-3,6.379032E-2,2.2651032E-2,9.4217926E-2,1.0354287E-1,1.552623E-1,1.5967476E-1,1.0859268E-1,1.6442734E-1,6.039648E-3,-5.1328237E-3,-4.838943E-3,-4.799867E-3,-4.0143323E-3,-2.2596477E-3,-4.095969E-3,6.7362622E-3,-2.5104736E-3,-2.0610986E-3,2.7596648E-3,-2.4472566E-3,2.7868003E-4,9.162718E-3,-6.019243E-4,1.66686E-3,5.875614E-3,4.1885255E-4,3.175569E-3,3.0851578E-3,5.9757154E-3,3.4960066E-3,7.173302E-3,8.496023E-3,4.205701E-3,2.0995941E-4,8.48452E-3,4.797396E-3,7.083252E-3,6.2287687E-3,8.540319E-3],"categories":[],"categories_nodes":[],"categories_segments":[],"categories_sizes":[],"default_left":[0,0,0,0,0,0,0,0,0,0,0,0,0,0,0,0,0,0,0,0,0,0,0,0,0,0,0,0,0,0,0,0,0,0,0,0,0,0,0,0,0,0,0,0,0,0,0,0,0,0,0,0,0,0,0,0,0,0,0,0,0],"id":26,"left_children":[1,3,5,7,9,11,13,15,17,19,21,23,25,27,29,31,33,35,37,39,41,43,45,47,49,51,53,55,57,59,-1,-1,-1,-1,-1,-1,-1,-1,-1,-1,-1,-1,-1,-1,-1,-1,-1,-1,-1,-1,-1,-1,-1,-1,-1,-1,-1,-1,-1,-1,-1],"loss_changes":[6.507374E1,9.419786E0,5.36314E0,8.4103775E-1,2.544598E0,2.2765226E0,5.520592E-1,5.698204E-2,2.969284E-1,1.6607355E0,3.9567673E-1,2.607428E0,3.2218456E-1,5.674858E-1,1.594162E-1,3.4561157E-3,6.5107346E-2,2.3348093E-1,3.3320224E-1,9.8284936E-1,6.9717765E-1,3.2019815E-1,6.897471E-1,7.635122E-1,6.7859554E-1,4.3025184E-1,1.9950199E-1,4.617715E-1,3.615265E-1,1.2667465E-1,0E0,0E0,0E0,0E0,0E0,0E0,0E0,0E0,0E0,0E0,0E0,0E0,0E0,0E0,0E0,0E0,0E0,0E0,0E0,0E0,0E0,0E0,0E0,0E0,0E0,0E0,0E0,0E0,0E0,0E0,0E0],"parents":[2147483647,0,0,1,1,2,2,3,3,4,4,5,5,6,6,7,7,8,8,9,9,10,10,11,11,12,12,13,13,14,14,15,15,16,16,17,17,18,18,19,19,20,20,21,21,22,22,23,23,24,24,25,25,26,26,27,27,28,28,29,29],"right_children":[2,4,6,8,10,12,14,16,18,20,22,24,26,28,30,32,34,36,38,40,42,44,46,48,50,52,54,56,58,60,-1,-1,-1,-1,-1,-1,-1,-1,-1,-1,-1,-1,-1,-1,-1,-1,-1,-1,-1,-1,-1,-1,-1,-1,-1,-1,-1,-1,-1,-1,-1],"split_conditions":[3.86E2,1.8755E2,6.465E2,9.3775E1,1E1,9E0,8.055E2,4.08E1,1E1,-4.2E0,-1.75E0,8.660254E-1,5.161E2,3.1378E1,3.225E1,1.11E1,1E1,-3.8775E0,-1.9275E1,6E0,9E0,-1.47E1,1.1E1,8E0,4.867E2,1E1,1.994235E1,-1.365E1,8E0,8.144248E0,6.039648E-3,-5.1328237E-3,-4.838943E-3,-4.799867E-3,-4.0143323E-3,-2.2596477E-3,-4.095969E-3,6.7362622E-3,-2.5104736E-3,-2.0610986E-3,2.7596648E-3,-2.4472566E-3,2.7868003E-4,9.162718E-3,-6.019243E-4,1.66686E-3,5.875614E-3,4.1885255E-4,3.175569E-3,3.0851578E-3,5.9757154E-3,3.4960066E-3,7.173302E-3,8.496023E-3,4.205701E-3,2.0995941E-4,8.48452E-3,4.797396E-3,7.083252E-3,6.2287687E-3,8.540319E-3],"split_indices":[0,0,0,0,4,4,0,0,4,1,1,6,0,2,1,0,3,2,1,3,4,2,4,4,0,4,7,1,4,7,0,0,0,0,0,0,0,0,0,0,0,0,0,0,0,0,0,0,0,0,0,0,0,0,0,0,0,0,0,0,0],"split_type":[0,0,0,0,0,0,0,0,0,0,0,0,0,0,0,0,0,0,0,0,0,0,0,0,0,0,0,0,0,0,0,0,0,0,0,0,0,0,0,0,0,0,0,0,0,0,0,0,0,0,0,0,0,0,0,0,0,0,0,0,0],"sum_hessian":[1.213E4,7.569E3,4.561E3,4.724E3,2.845E3,2.673E3,1.888E3,2.985E3,1.739E3,2.29E3,5.55E2,2.142E3,5.31E2,1.192E3,6.96E2,1.79E3,1.195E3,1.225E3,5.14E2,4.9E2,1.8E3,1.32E2,4.23E2,1.309E3,8.33E2,3.27E2,2.04E2,2.96E2,8.96E2,5.81E2,1.15E2,5.5E2,1.24E3,6.61E2,5.34E2,2.14E2,1.011E3,9E0,5.05E2,1.53E2,3.37E2,1.523E3,2.77E2,8E0,1.24E2,2.71E2,1.52E2,9.71E2,3.38E2,3.66E2,4.67E2,1.79E2,1.48E2,1.68E2,3.6E1,1.8E1,2.78E2,6.51E2,2.45E2,8.3E1,4.98E2],"tree_param":{"num_deleted":"0","num_feature":"9","num_nodes":"61","size_leaf_vector":"1"}},{"base_weights":[1.9515729E-4,-5.5190504E-2,8.781158E-2,-7.7878006E-2,-7.865167E-3,5.761368E-2,1.2569782E-1,-8.682193E-2,-5.2327897E-2,-2.2806827E-2,5.2826364E-2,4.296153E-2,1.1410376E-1,1.4646593E-1,1.111542E-1,-9.257569E-2,-7.751247E-2,-6.706432E-2,-1.8133761E-2,4.7853485E-2,-3.2685857E-2,3.17381E-2,7.8594945E-2,1.665502E-2,8.416858E-2,9.442361E-2,1.469895E-1,3.624859E-2,1.4905934E-1,9.5767684E-2,1.3718532E-1,-4.7853678E-3,-4.491688E-3,-3.13526E-3,-4.3285233E-3,-1.9264633E-3,-3.6538192E-3,1.7126119E-3,-1.8364843E-3,-1.0892949E-3,5.444547E-3,-4.776913E-3,-1.3947301E-3,7.6183374E-3,9.796796E-4,-6.335771E-3,4.307498E-3,1.7237221E-4,2.7886634E-3,2.9099842E-3,5.717816E-3,3.229982E-3,6.5662563E-3,7.953596E-3,3.799469E-3,8.937805E-3,-1.3715151E-2,8.666703E-3,6.836024E-3,3.4143743E-3,6.7296126E-3,7.2144927E-3,5.6933905E-3],"categories":[],"categories_nodes":[],"categories_segments":[],"categories_sizes":[],"default_left":[0,0,0,0,0,0,0,0,0,0,0,0,0,0,0,0,0,0,0,0,0,0,0,0,0,0,0,0,0,0,0,0,0,0,0,0,0,0,0,0,0,